tree
version=v4
num_class=1
num_tree_per_iteration=1
label_index=0
max_feature_idx=6
objective=regression
feature_names=latitude longitude hour_of_day is_weekend street_lit commercial_density recent_incidents_count
feature_infos=[26.108108399999999:26.207634899999999] [91.637285300000002:91.818208299999995] [0:23] [0:1] [0:1] [0.10000000000000001:0.90000000000000002] [0:5]
tree_sizes=2748 2933 2932 2935 2942 2889 2946 2857 2954 2880 2900 2892 2899 2952 2877 2957 2953 2950 2952 2957 2947 2897 2955 2960 2890 2883 2867 2897 2857 2950 2944 2885 2884 2869 2893 2946 2892 2934 2872 2943 2931 2951 2898 2878 2947 2925 2952 2932 2947 2957 2903 2960 2975 2967 2980 2869 2922 2917 2946 2934 2980 2975 2900 2941 2904 2886 2933 2962 2937 2928 2947 2913 2875 2859 2891 2928 2872 2927 2925 2881 2941 2907 2917 2896 2945 2949 2886 2971 2950 2936 2929 2994 2966 2910 2908 2892 2936 2947 2928 2960 2922 2926 2908 2954 2926 2910 2905 2904 2900 2920 2934 2929 2911 2819 2926 2860 2904 2873 2909 2884 2898 2922 2867 2890 2923 2854 2933 2902 2860 2813 2900 2923 2839 2893 2914 2917 2893 2873 2878 2847 2868 2903

Tree=0
num_leaves=31
num_cat=0
split_feature=2 2 2 5 3 2 5 5 3 2 5 5 5 5 5 0 0 5 5 0 5 0 1 1 1 5 1 0 5 1
split_gain=218135 114193 8088.61 7058.67 1991.02 901.477 823.864 750.98 230.382 403.637 173.889 118.346 93.9407 66.6181 38.0702 28.6164 26.4651 25.5285 21.047 19.8601 19.1127 17.1371 32.5809 21.1988 25.6967 17.6244 17.149 16.4578 15.9589 15.7833
threshold=4.5000000000000009 21.500000000000004 7.5000000000000009 0.47500000000000003 1.0000000180025095e-35 3.5000000000000004 0.70500000000000007 0.26500000000000007 1.0000000180025095e-35 22.500000000000004 0.57500000000000007 0.36500000000000005 0.17500000000000002 0.80500000000000016 0.83500000000000008 26.127448400000002 26.185188150000005 0.41500000000000004 0.62500000000000011 26.151151900000006 0.83500000000000008 26.150212900000003 91.677916850000017 91.718428850000024 91.741504350000014 0.18500000000000003 91.701169900000011 26.182868950000003 0.33500000000000008 91.665928900000026
decision_type=2 2 2 2 2 2 2 2 2 2 2 2 2 2 2 2 2 2 2 2 2 2 2 2 2 2 2 2 2 2
left_child=4 2 -2 7 14 15 10 12 17 29 -5 28 -4 -8 16 -6 19 21 -12 -1 -11 22 -3 25 -25 -23 -27 -16 -9 -10
right_child=1 8 3 6 5 -7 13 11 9 20 18 -13 -14 -15 27 -17 -18 -19 -20 -21 -22 23 -24 24 -26 26 -28 -29 -30 -31
leaf_value=3.2359581276487721 3.0635617391655199 3.2516035124900751 3.0504126547518289 3.0104713122309996 3.2683974792726764 3.2313548812282473 2.9895444818652748 3.033345059035375 3.2148710882065057 3.2803290998168713 3.002293921224795 3.0217884079861279 3.0405136895949965 2.98188355733107 3.2317442628243715 3.2873392842940956 3.233417403304331 3.234798122726489 2.9969152744848135 3.2410835009712562 3.3078978274179898 3.2700463100970665 3.2221497009803994 3.2231071004047167 3.2444419778687381 3.2425900234305751 3.2748465090172991 3.2168489031436853 3.0275337681707981 3.237173657266307
leaf_weight=2755 9948 150 4412 5895 211 927 5732 4038 88 833 3001 6529 5247 5620 710 3625 2270 2870 4617 6020 68 124 251 169 856 259 49 251 1670 805
leaf_count=2755 9948 150 4412 5895 211 927 5732 4038 88 833 3001 6529 5247 5620 710 3625 2270 2870 4617 6020 68 124 251 169 856 259 49 251 1670 805
internal_value=3.08793 3.04541 3.02262 3.01391 3.24825 3.2756 2.99568 3.03461 3.24354 3.2588 3.00402 3.02639 3.04504 2.98575 3.2374 3.2863 3.23823 3.23775 2.99903 3.23947 3.28241 3.24232 3.23317 3.24484 3.24092 3.25413 3.24772 3.22785 3.03164 3.23498
internal_weight=0 63231 56709 46761 16769 4763 24865 21896 6522 1794 13513 12237 9659 11352 12006 3836 11045 4728 7618 8775 901 1858 401 1457 1025 432 308 961 5708 893
internal_count=80000 63231 56709 46761 16769 4763 24865 21896 6522 1794 13513 12237 9659 11352 12006 3836 11045 4728 7618 8775 901 1858 401 1457 1025 432 308 961 5708 893
is_linear=0
shrinkage=1


Tree=1
num_leaves=31
num_cat=0
split_feature=2 2 4 4 4 2 5 2 5 3 5 3 2 5 5 3 2 5 2 3 2 5 5 5 5 5 5 5 5 5
split_gain=196867 103059 46745.8 43437.6 16869.9 4829.74 4311.26 2212.68 2073.78 1348.9 629.487 591.621 501.11 431.514 280.562 230.947 281.15 215.218 172.188 77.8305 97.1132 76.3037 66.6684 58.1694 53.8276 52.2283 32.6353 31.9067 25.2046 16.6751
threshold=4.5000000000000009 21.500000000000004 1.0000000180025095e-35 1.0000000180025095e-35 1.0000000180025095e-35 7.5000000000000009 0.45500000000000007 7.5000000000000009 0.48500000000000004 1.0000000180025095e-35 0.66500000000000015 1.0000000180025095e-35 3.5000000000000004 0.27500000000000008 0.72500000000000009 1.0000000180025095e-35 22.500000000000004 0.30500000000000005 3.5000000000000004 1.0000000180025095e-35 22.500000000000004 0.55500000000000016 0.75500000000000012 0.17500000000000002 0.58500000000000008 0.37500000000000006 0.21500000000000002 0.79500000000000015 0.39500000000000007 0.82500000000000007
decision_type=2 2 2 2 2 2 2 2 2 2 2 2 2 2 2 2 2 2 2 2 2 2 2 2 2 2 2 2 2 2
left_child=3 2 7 11 19 -4 13 -2 17 -5 21 -1 -11 23 24 -6 -17 26 -13 -3 -21 -8 -12 -7 -10 -15 -9 -16 -19 -24
right_child=1 4 5 9 15 6 10 8 14 12 22 18 -14 25 27 16 -18 28 -20 20 -22 -23 29 -25 -26 -27 -28 -29 -30 -31
leaf_value=0.26264864214336248 0.046546283831758913 0.2635162247830759 -0.053584284389248032 0.087938568614035859 0.087552369585837397 -0.065438216897644536 -0.10104601986724385 0.032172906664147613 -0.0039349629053716372 0.13534475437232427 -0.11928074745747751 0.30857663858099049 0.086905310027479768 -0.083978807007071721 -0.024321466757918422 0.089003009838382094 0.13587112169857174 0.014559628351020662 0.26354230205064572 0.26446673888568734 0.30793385850265625 -0.110421569396512 -0.12511083046448704 -0.074504311685141281 -0.015565063559226473 -0.092398963708218956 0.022440767141569628 -0.034735318333569215 0.005576212192286871 -0.13042909240749964
leaf_weight=3715 3024 1472 6924 8291 3256 3088 4110 1995 1709 2660 3668 1176 668 4071 1207 635 645 1516 259 258 256 4598 2847 4143 2381 3363 1516 1883 1610 3056
leaf_count=3715 3024 1472 6924 8291 3256 3088 4110 1995 1709 2660 3668 1176 668 4071 1207 635 645 1516 259 258 256 4598 2847 4143 2381 3363 1516 1883 1610 3056
internal_value=0 -0.0403924 -0.0620402 0.152308 0.147836 -0.0915446 -0.0995229 0.00780615 -0.000672551 0.0987321 -0.115724 0.273181 0.125622 -0.079329 -0.0192964 0.0946262 0.11262 0.019475 0.300448 0.269365 0.286116 -0.105996 -0.124575 -0.0706326 -0.0107054 -0.0877879 0.0279707 -0.0306675 0.00993285 -0.127864
internal_weight=0 63231 56709 16769 6522 39868 32944 16841 13817 11619 18279 5150 3328 14665 7180 4536 1280 6637 1435 1986 514 8708 9571 7231 4090 7434 3511 3090 3126 5903
internal_count=80000 63231 56709 16769 6522 39868 32944 16841 13817 11619 18279 5150 3328 14665 7180 4536 1280 6637 1435 1986 514 8708 9571 7231 4090 7434 3511 3090 3126 5903
is_linear=0
shrinkage=0.05


Tree=2
num_leaves=31
num_cat=0
split_feature=2 2 4 4 4 2 5 2 5 3 5 3 2 5 5 5 3 2 2 3 2 5 5 5 5 5 5 5 5 5
split_gain=177672 93011 42188.1 39202.5 15225 4358.84 3890.91 1996.94 1872.15 1217.39 568.112 533.938 452.252 389.442 237.267 212.138 208.43 253.738 155.4 70.242 87.6447 68.8641 60.1682 52.4979 47.1361 42.9907 33.7803 28.7958 22.8976 15.0492
threshold=4.5000000000000009 21.500000000000004 1.0000000180025095e-35 1.0000000180025095e-35 1.0000000180025095e-35 7.5000000000000009 0.45500000000000007 7.5000000000000009 0.49500000000000005 1.0000000180025095e-35 0.66500000000000015 1.0000000180025095e-35 3.5000000000000004 0.27500000000000008 0.72500000000000009 0.31500000000000006 1.0000000180025095e-35 22.500000000000004 3.5000000000000004 1.0000000180025095e-35 22.500000000000004 0.55500000000000016 0.75500000000000012 0.17500000000000002 0.37500000000000006 0.6150000000000001 0.21500000000000002 0.79500000000000015 0.41500000000000004 0.82500000000000007
decision_type=2 2 2 2 2 2 2 2 2 2 2 2 2 2 2 2 2 2 2 2 2 2 2 2 2 2 2 2 2 2
left_child=3 2 7 11 19 -4 13 -2 15 -5 21 -1 -11 23 25 26 -6 -18 -13 -3 -21 -8 -12 -7 -15 -10 -9 -16 -17 -24
right_child=1 4 5 9 16 6 10 8 14 12 22 18 -14 24 27 28 17 -19 -20 20 -22 -23 29 -25 -26 -27 -28 -29 -30 -31
leaf_value=0.24951621296267812 0.044218970955087755 0.25034040647518374 -0.050905068898798971 0.083541639475910132 0.083174750827171628 -0.062166304495429904 -0.095993718203256903 0.030564260994157707 -0.0056004835446344719 0.12857751690579536 -0.11331671091322681 0.29314780938787527 0.082560043938145672 -0.079779865627342461 -0.02310539311277985 0.01233014236517857 0.084552859422259444 0.12907756286998129 0.25036516967427319 0.25124340075855106 0.29253716813400388 -0.10490049154742527 -0.11885529034151127 -0.070779097449247333 -0.087779018132183889 -0.016081944241330675 0.020963011225409216 -0.032998552286353976 0.0037195388021227169 -0.12390763876832905
leaf_weight=3715 3024 1472 6924 8291 3256 3088 4110 1995 2048 2660 3668 1176 668 4071 1207 1708 635 645 259 258 256 4598 2847 4143 3363 1873 1694 1883 1409 3056
leaf_count=3715 3024 1472 6924 8291 3256 3088 4110 1995 2048 2660 3668 1176 668 4071 1207 1708 635 645 259 258 256 4598 2847 4143 3363 1873 1694 1883 1409 3056
internal_value=0 -0.0383728 -0.0589382 0.144693 0.140444 -0.0869673 -0.0945467 0.00741584 -0.000638923 0.0937955 -0.109938 0.259522 0.119341 -0.0753626 -0.0187728 0.0180411 0.0898949 0.106989 0.285426 0.255897 0.27181 -0.100697 -0.118346 -0.067101 -0.0833985 -0.0106073 0.0261553 -0.0291341 0.00843783 -0.121471
internal_weight=0 63231 56709 16769 6522 39868 32944 16841 13817 11619 18279 5150 3328 14665 7011 6806 4536 1280 1435 1986 514 8708 9571 7231 7434 3921 3689 3090 3117 5903
internal_count=80000 63231 56709 16769 6522 39868 32944 16841 13817 11619 18279 5150 3328 14665 7011 6806 4536 1280 1435 1986 514 8708 9571 7231 7434 3921 3689 3090 3117 5903
is_linear=0
shrinkage=0.05


Tree=3
num_leaves=31
num_cat=0
split_feature=2 2 4 4 4 2 5 2 5 3 5 3 2 5 5 3 2 5 2 3 2 5 5 5 5 5 5 5 5 5
split_gain=160349 83942.4 38074.7 35380.2 13740.6 3933.86 3511.55 1802.24 1690 1098.69 512.721 481.879 408.157 351.793 228.823 188.108 228.999 175.429 140.248 63.3934 79.0993 62.1499 54.3018 51.4057 40.783 40.2513 30.1651 26.4741 20.755 13.582
threshold=4.5000000000000009 21.500000000000004 1.0000000180025095e-35 1.0000000180025095e-35 1.0000000180025095e-35 7.5000000000000009 0.45500000000000007 7.5000000000000009 0.48500000000000004 1.0000000180025095e-35 0.66500000000000015 1.0000000180025095e-35 3.5000000000000004 0.26500000000000007 0.71500000000000008 1.0000000180025095e-35 22.500000000000004 0.30500000000000005 3.5000000000000004 1.0000000180025095e-35 22.500000000000004 0.55500000000000016 0.75500000000000012 0.33500000000000008 0.58500000000000008 0.17500000000000002 0.79500000000000015 0.21500000000000002 0.39500000000000007 0.82500000000000007
decision_type=2 2 2 2 2 2 2 2 2 2 2 2 2 2 2 2 2 2 2 2 2 2 2 2 2 2 2 2 2 2
left_child=3 2 7 11 19 -4 13 -2 17 -5 21 -1 -11 25 24 -6 -17 27 -13 -3 -21 -8 -12 -15 -10 -7 -16 -9 -19 -24
right_child=1 4 5 9 15 6 10 8 14 12 22 18 -14 23 26 16 -18 28 -20 20 -22 -23 29 -25 -26 -27 -28 -29 -30 -31
leaf_value=0.23704040625534983 0.042008021840007695 0.23782338801285496 -0.048359814870377903 0.079364558050397507 0.079016014200341211 -0.059057991720581161 -0.091194033541709851 0.029036047715596848 -0.0035042726312297851 0.12214863393315696 -0.10765087536923108 0.27849040734930103 0.078432040838357406 -0.073448981994405124 -0.021580399246390627 0.080325216702588909 0.1226236806636633 0.013164459058573675 0.23784692977846361 0.23868122119312141 0.27791030751541257 -0.099655466036414939 -0.1129125247545564 -0.081860502416127245 -0.0137737479289692 -0.066779107881873537 -0.031348624601432201 0.020270578217215646 0.0050124827864340702 -0.11771225784344511
leaf_weight=3715 3024 1472 6924 8291 3256 3088 4110 1995 1709 2660 3668 1176 668 2852 1362 635 645 1516 259 258 256 4598 2847 5002 2226 3723 1883 1516 1610 3056
leaf_count=3715 3024 1472 6924 8291 3256 3088 4110 1995 1709 2660 3668 1176 668 2852 1362 635 645 1516 259 258 256 4598 2847 5002 2226 3723 1883 1516 1610 3056
internal_value=0 -0.0364541 -0.0559912 0.137458 0.133422 -0.082619 -0.0898194 0.00704505 -0.000606977 0.0891057 -0.104441 0.246546 0.113374 -0.0715944 -0.0174194 0.0854001 0.10164 0.0175809 0.271155 0.243102 0.258219 -0.0956618 -0.112429 -0.0788061 -0.00931364 -0.0632785 -0.0272487 0.0252512 0.0089659 -0.115397
internal_weight=0 63231 56709 16769 6522 39868 32944 16841 13817 11619 18279 5150 3328 14665 7180 4536 1280 6637 1435 1986 514 8708 9571 7854 3935 6811 3245 3511 3126 5903
internal_count=80000 63231 56709 16769 6522 39868 32944 16841 13817 11619 18279 5150 3328 14665 7180 4536 1280 6637 1435 1986 514 8708 9571 7854 3935 6811 3245 3511 3126 5903
is_linear=0
shrinkage=0.05


Tree=4
num_leaves=31
num_cat=0
split_feature=2 2 4 4 4 2 5 2 5 3 3 5 2 5 5 5 3 2 2 5 3 2 5 5 5 5 5 5 5 5
split_gain=144715 75758.1 34362.4 31930.7 12400.9 3550.3 3172.58 1626.52 1525.62 991.568 434.896 430.351 368.362 342.859 193.39 173.019 169.767 206.671 126.574 77.2555 57.2126 71.3872 48.5207 43.0928 35.6069 32.689 27.3902 23.3573 18.8361 10.7944
threshold=4.5000000000000009 21.500000000000004 1.0000000180025095e-35 1.0000000180025095e-35 1.0000000180025095e-35 7.5000000000000009 0.49500000000000005 7.5000000000000009 0.49500000000000005 1.0000000180025095e-35 1.0000000180025095e-35 0.31500000000000006 3.5000000000000004 0.69500000000000006 0.72500000000000009 0.31500000000000006 1.0000000180025095e-35 22.500000000000004 3.5000000000000004 0.19500000000000003 1.0000000180025095e-35 22.500000000000004 0.59500000000000008 0.42500000000000004 0.6150000000000001 0.81500000000000006 0.21500000000000002 0.79500000000000015 0.41500000000000004 0.22500000000000003
decision_type=2 2 2 2 2 2 2 2 2 2 2 2 2 2 2 2 2 2 2 2 2 2 2 2 2 2 2 2 2 2
left_child=3 2 7 10 20 -4 11 -2 15 -5 -1 19 -11 22 24 26 -6 -18 -12 -7 -3 -22 -8 -13 -10 -15 -9 -16 -17 -21
right_child=1 4 5 9 16 6 13 8 14 12 18 23 -14 25 27 28 17 -19 -20 29 21 -23 -24 -25 -26 -27 -28 -29 -30 -31
leaf_value=0.22518838590118798 0.039907622039188739 0.22593221707350533 -0.045941825601967551 0.075396329268746634 0.075065212304525411 -0.056971162182077421 -0.089684446814625368 0.027584245480908626 -0.0050178802551045015 0.11604120709170077 0.26456590309029532 -0.075501203557797797 0.074510441287936546 -0.10519770327657155 -0.020871103446751832 0.011143709515938176 0.076308953832453633 0.11649249651635341 0.22595456571652625 -0.062332235549002961 0.2267471572225408 0.2640147958882153 -0.097321108203442377 -0.083327935314118556 -0.014556858197880267 -0.11155058502402873 0.018938666184034492 -0.029781193185276913 0.0033340139730950466 -0.067724841784098974
leaf_weight=3715 3024 1472 6924 8291 3256 3933 4172 1995 2048 2660 1176 4567 668 4870 1207 1708 635 645 259 1240 258 256 4148 2860 1873 3466 1694 1883 1409 3688
leaf_count=3715 3024 1472 6924 8291 3256 3933 4172 1995 2048 2660 1176 4567 668 4870 1207 1708 635 645 259 1240 258 256 4148 2860 1873 3466 1694 1883 1409 3688
internal_value=0 -0.0346314 -0.0531917 0.130585 0.126751 -0.078488 -0.0853284 0.0066928 -0.000576628 0.0846504 0.234219 -0.0696378 0.107705 -0.100672 -0.0169464 0.0162862 0.0811301 0.0965577 0.257597 -0.0621971 0.230947 0.245308 -0.0934918 -0.0785151 -0.0095745 -0.107839 0.0236142 -0.0263008 0.00761344 -0.0663679
internal_weight=0 63231 56709 16769 6522 39868 32944 16841 13817 11619 5150 16288 3328 16656 7011 6806 4536 1280 1435 8861 1986 514 8320 7427 3921 8336 3689 3090 3117 4928
internal_count=80000 63231 56709 16769 6522 39868 32944 16841 13817 11619 5150 16288 3328 16656 7011 6806 4536 1280 1435 8861 1986 514 8320 7427 3921 8336 3689 3090 3117 4928
is_linear=0
shrinkage=0.05


Tree=5
num_leaves=31
num_cat=0
split_feature=2 2 4 4 4 2 2 3 3 2 3 2 2 3 2 1 1 1 1 0 0 0 0 0 0 0 2 1 1 2
split_gain=130605 68371.6 31012.1 28817.4 11191.8 3204.15 1467.94 894.89 392.493 332.447 153.215 186.521 114.233 51.6343 64.4269 2.65885 2.15856 1.88679 1.64283 1.6109 1.55339 1.66815 1.59712 1.50728 1.7706 2.31937 1.51754 2.12692 2.24207 2.31281
threshold=4.5000000000000009 21.500000000000004 1.0000000180025095e-35 1.0000000180025095e-35 1.0000000180025095e-35 7.5000000000000009 7.5000000000000009 1.0000000180025095e-35 1.0000000180025095e-35 3.5000000000000004 1.0000000180025095e-35 22.500000000000004 3.5000000000000004 1.0000000180025095e-35 22.500000000000004 91.764948350000012 91.741504350000014 91.69308820000002 91.713494300000022 26.163657350000005 26.190936500000003 26.180916450000002 26.191425200000005 26.114511750000002 26.155490750000002 26.155091700000003 9.5000000000000018 91.69253645000002 91.659389900000022 10.500000000000002
decision_type=2 2 2 2 2 2 2 2 2 2 2 2 2 2 2 2 2 2 2 2 2 2 2 2 2 2 2 2 2 2
left_child=3 2 6 8 13 16 -2 20 -1 15 18 -12 -10 -3 -15 -9 -4 23 -6 -18 21 -5 -22 -8 25 26 -25 28 29 -28
right_child=1 4 5 7 10 -7 17 9 12 -11 11 -13 -14 14 -16 -17 19 -19 -20 -21 22 -23 -24 24 -26 -27 27 -29 -30 -31
leaf_value=0.21392896545366519 0.037912239474495422 0.21463560721148617 -0.04287757497989067 0.071824370497232545 0.072624736248385599 -0.081061993348770053 0.0084593212240309055 0.10934020026999328 0.25133760568438746 0.070784919291823928 0.072493505596410573 0.11066787289556608 0.21465684065027127 0.21540980357532355 0.25081405984237792 0.11301897043906727 -0.055324252886431557 -0.00094631922940495309 0.070351105628862112 -0.044533884743902061 0.081798090194833695 0.070068958044031016 0.073146750428398744 -0.0033625902546980547 0.0014611404082645416 -0.013213300376406147 0.012797538572922349 0.014012642963293562 -0.0010875315585097032 0.0015640368672619094
leaf_weight=3715 3024 1472 3945 5803 1376 32944 56 2010 1176 668 635 645 259 258 256 650 35 9430 1880 2944 58 1765 665 378 1700 36 50 27 1592 548
leaf_count=3715 3024 1472 3945 5803 1376 32944 56 2010 1176 668 635 645 259 258 256 650 35 9430 1880 2944 58 1765 665 378 1700 36 50 27 1592 548
internal_value=0 -0.0328999 -0.0505321 0.124056 0.120413 -0.0745636 0.00635816 0.0804179 0.222508 0.10232 0.0770736 0.0917298 0.244717 0.2194 0.233043 0.110239 -0.0436447 -0.000547797 0.071312 -0.0446607 0.0716265 0.071415 0.0738408 0.00030884 0.000203454 -0.00060919 -0.000434335 6.49347e-05 -0.000107023 0.00250329
internal_weight=0 63231 56709 16769 6522 39868 16841 11619 5150 3328 4536 1280 1435 1986 514 2660 6924 13817 3256 2979 8291 7568 723 4387 4331 2631 2595 2217 2190 598
internal_count=80000 63231 56709 16769 6522 39868 16841 11619 5150 3328 4536 1280 1435 1986 514 2660 6924 13817 3256 2979 8291 7568 723 4387 4331 2631 2595 2217 2190 598
is_linear=0
shrinkage=0.05


Tree=6
num_leaves=31
num_cat=0
split_feature=2 2 4 4 4 2 5 2 5 3 5 3 5 2 5 3 2 5 2 5 5 3 2 5 5 5 5 5 5 5
split_gain=117871 61705.4 27988.4 26007.7 10100.6 2891.75 2863.25 1324.81 1376.97 807.638 389.289 354.225 310.252 300.033 212.028 138.277 168.335 119.686 103.095 68.9707 49.3501 46.6 58.1453 45.6062 39.4607 24.9307 23.1659 17.9482 15.8694 9.58832
threshold=4.5000000000000009 21.500000000000004 1.0000000180025095e-35 1.0000000180025095e-35 1.0000000180025095e-35 7.5000000000000009 0.49500000000000005 7.5000000000000009 0.46500000000000002 1.0000000180025095e-35 0.27500000000000008 1.0000000180025095e-35 0.70500000000000007 3.5000000000000004 0.66500000000000015 1.0000000180025095e-35 22.500000000000004 0.28500000000000009 3.5000000000000004 0.38500000000000006 0.59500000000000008 1.0000000180025095e-35 22.500000000000004 0.79500000000000015 0.19500000000000003 0.81500000000000006 0.56500000000000006 0.15500000000000003 0.35500000000000004 0.42500000000000004
decision_type=2 2 2 2 2 2 2 2 2 2 2 2 2 2 2 2 2 2 2 2 2 2 2 2 2 2 2 2 2 2
left_child=3 2 7 11 21 -4 10 -2 17 -5 24 -1 20 -11 26 -6 -17 27 -13 -12 -8 -3 -23 -16 -7 -14 -10 -9 -19 -21
right_child=1 4 5 9 15 6 12 8 14 13 19 18 25 -15 23 16 -18 28 -20 29 -22 22 -24 -25 -26 -27 -28 -29 -30 -31
leaf_value=0.20323251481653065 0.036016627306903332 0.20390382924157643 -0.041462496285759931 0.068045187795823636 0.067746353814895355 -0.050069504803635735 -0.081147124443769328 0.029165741537324142 -0.0015888028700626442 0.1047271901257056 -0.064613042305595433 0.23877070710367088 -0.096270231678348861 0.067245672374523197 -0.017750159756141456 0.068868832071935102 0.10513448271640512 0.014358908008255787 0.20392400113772241 -0.070369554094489528 -0.088677828435839753 0.20463931578998418 0.23827336113899947 -0.028263709413229463 -0.057485410154486882 -0.10191995514243997 -0.0099039103974974396 0.021039077375779466 0.0070047320873385032 -0.075108439791687104
leaf_weight=3715 3024 1472 6924 8291 3256 3933 4172 985 1731 2660 4494 1176 4472 668 2281 635 645 1177 259 1703 4546 258 256 1883 3298 3466 1623 2190 1947 2860
leaf_count=3715 3024 1472 6924 8291 3256 3933 4172 985 1731 2660 4494 1176 4472 668 2281 635 645 1177 259 1703 4546 258 256 1883 3298 3466 1623 2190 1947 2860
internal_value=0 -0.0312549 -0.0480055 0.117853 0.114392 -0.0708354 -0.0770089 0.00604025 -0.000520407 0.076397 -0.0621028 0.211382 -0.0915856 0.0972039 -0.0149685 0.0732199 0.0871433 0.0167237 0.232481 -0.0690097 -0.085074 0.20843 0.221391 -0.0225045 -0.0534518 -0.0987371 -0.00561248 0.0235603 0.0097755 -0.0733398
internal_weight=0 63231 56709 16769 6522 39868 32944 16841 13817 11619 16288 5150 16656 3328 7518 4536 1280 6299 1435 9057 8718 1986 514 4164 7231 7938 3354 3175 3124 4563
internal_count=80000 63231 56709 16769 6522 39868 32944 16841 13817 11619 16288 5150 16656 3328 7518 4536 1280 6299 1435 9057 8718 1986 514 4164 7231 7938 3354 3175 3124 4563
is_linear=0
shrinkage=0.05


Tree=7
num_leaves=31
num_cat=0
split_feature=2 2 4 4 4 2 2 3 3 2 3 2 2 3 2 1 1 1 1 0 0 0 0 0 0 2 0 1 2 1
split_gain=106379 55689.1 25259.5 23472 9115.8 2609.8 1195.64 728.893 319.688 270.78 124.795 151.922 93.0435 42.0565 52.4761 2.39961 1.9481 1.6311 1.48265 1.45383 1.44138 1.40194 1.5055 1.4414 1.38168 1.34598 1.34255 1.38986 1.3313 1.89962
threshold=4.5000000000000009 21.500000000000004 1.0000000180025095e-35 1.0000000180025095e-35 1.0000000180025095e-35 7.5000000000000009 7.5000000000000009 1.0000000180025095e-35 1.0000000180025095e-35 3.5000000000000004 1.0000000180025095e-35 22.500000000000004 3.5000000000000004 1.0000000180025095e-35 22.500000000000004 91.764948350000012 91.741504350000014 91.69308820000002 91.713494300000022 26.163657350000005 26.117931350000003 26.190936500000003 26.180916450000002 26.191425200000005 26.119205300000004 5.5000000000000009 26.185716350000003 91.649990050000014 3.5000000000000004 91.798168100000012
decision_type=2 2 2 2 2 2 2 2 2 2 2 2 2 2 2 2 2 2 2 2 2 2 2 2 2 2 2 2 2 2
left_child=3 2 6 8 13 16 -2 21 28 15 18 26 24 -3 -15 -9 25 -8 -6 -18 -13 22 -5 -23 -10 -4 27 -12 -1 -30
right_child=1 4 5 7 10 -7 17 9 12 -11 11 20 -14 14 -16 -17 19 -19 -20 -21 -22 23 -24 -25 -26 -27 -28 -29 29 -31
leaf_value=0.19260201601226021 0.034215797239469811 0.19370863596382348 -0.039959269631568366 0.064830892132549445 0.065606182093155399 -0.073158448790964267 0.00030209377144003433 0.098636827557092882 0.23924476883628151 0.063883387825931393 0.056227214153735876 0.11245578337799421 0.1937278036905532 0.19440735024075176 0.22635968220420183 0.10213166025051704 -0.050484914811594152 -0.0008649230009033801 0.063446232303927472 -0.040234065262326195 0.099433590034037886 0.074305928421431577 0.063163252280597645 0.066087153283529043 0.22659554719098521 -0.038003785694311266 0.060484052456058236 0.067143342395117711 0.19557763767517267 0.18409643204588641
leaf_weight=2983 3024 1472 1325 5803 1376 32944 4387 2010 22 668 31 22 259 258 256 650 35 9430 1880 2944 623 58 1765 665 1154 2620 113 491 694 38
leaf_count=2983 3024 1472 1325 5803 1376 32944 4387 2010 22 668 31 22 259 258 256 650 35 9430 1880 2944 623 58 1765 665 1154 2620 113 491 694 38
internal_value=0 -0.0296921 -0.0456052 0.11196 0.108673 -0.0672937 0.00573824 0.0725772 0.200813 0.0923437 0.0695589 0.0827862 0.220857 0.198008 0.210321 0.0994908 -0.0393894 -0.000494387 0.064359 -0.0403545 0.0998778 0.0646429 0.064442 0.0667465 0.226832 -0.0386606 0.0654254 0.0664951 0.193071 0.194982
internal_weight=0 63231 56709 16769 6522 39868 16841 11619 5150 3328 4536 1280 1435 1986 514 2660 6924 13817 3256 2979 645 8291 7568 723 1176 3945 635 522 3715 732
internal_count=80000 63231 56709 16769 6522 39868 16841 11619 5150 3328 4536 1280 1435 1986 514 2660 6924 13817 3256 2979 645 8291 7568 723 1176 3945 635 522 3715 732
is_linear=0
shrinkage=0.05


Tree=8
num_leaves=31
num_cat=0
split_feature=2 2 4 4 4 2 5 2 5 5 5 5 5 2 5 5 5 2 5 5 5 5 2 2 5 5 5 5 5 5
split_gain=96006.9 50259.4 22796.7 21183.5 8227.01 2355.34 2585.34 1079.07 1243.62 356.927 280.112 190.056 120.31 74.7908 41.1398 40.6842 39.6399 36.121 35.8748 26.0385 25.1716 25.0628 16.8063 14.1082 9.65136 8.80242 7.8522 7.63675 7.52617 5.82092
threshold=4.5000000000000009 21.500000000000004 1.0000000180025095e-35 1.0000000180025095e-35 1.0000000180025095e-35 7.5000000000000009 0.46500000000000002 7.5000000000000009 0.53500000000000014 0.66500000000000015 0.27500000000000008 0.32500000000000007 0.76500000000000012 3.5000000000000004 0.55500000000000016 0.75500000000000012 0.38500000000000006 22.500000000000004 0.17500000000000002 0.21500000000000002 0.45500000000000007 0.63500000000000012 3.5000000000000004 22.500000000000004 0.82500000000000007 0.33500000000000008 0.22500000000000003 0.62500000000000011 0.85500000000000009 0.15500000000000003
decision_type=2 2 2 2 2 2 2 2 2 2 2 2 2 2 2 2 2 2 2 2 2 2 2 2 2 2 2 2 2 2
left_child=3 2 7 22 23 -4 10 -2 11 14 18 19 21 -5 -8 -11 25 -6 -7 29 -13 -10 -1 -3 -17 -12 -20 -16 -14 -9
right_child=1 4 5 13 17 6 9 8 12 15 16 20 28 -15 27 24 -18 -19 26 -21 -22 -23 -24 -25 -26 -27 -28 -29 -30 -31
leaf_value=0.19216690120515872 0.032505007195968626 0.18392740248681069 -0.037419902752021256 0.070980590345154748 0.061609302436421265 -0.043042035616940783 -0.070879457273541432 0.027731448365830427 -0.0068271662332135405 -0.084785519926143554 -0.055686876236677563 0.0083928493530156835 -0.023617730485264964 0.061029910772577328 -0.076429552537065279 -0.089396054638156489 -0.064936838623205803 0.070532989011974204 -0.04799922836419615 0.016785495618952401 -0.00016135553920194163 -0.014894550549810795 0.18492123462357507 0.1923560912778535 -0.093442095154213742 -0.060127679626298183 -0.05235281857565513 -0.080689291933014357 -0.029538463183598204 0.022329400305937067
leaf_weight=4159 3024 1001 6924 9246 2263 3088 3743 985 1697 3668 2432 2227 1591 2373 2968 2847 3307 2273 2085 1871 1401 2225 991 985 3056 2062 2058 1630 810 1010
leaf_count=4159 3024 1001 6924 9246 2263 3088 3743 985 1697 3668 2432 2227 1591 2373 2968 2847 3307 2273 2085 1871 1401 2225 991 985 3056 2062 2058 1630 810 1010
internal_value=0 -0.0282075 -0.043325 0.106362 0.103239 -0.063929 -0.0695005 0.00545132 -0.000469667 -0.082332 -0.0542106 0.0133091 -0.0168003 0.0689483 -0.0747714 -0.088921 -0.0607819 0.066081 -0.0471213 0.0210227 0.00508953 -0.0114039 0.190773 0.188108 -0.0914907 -0.0577245 -0.0501618 -0.0779396 -0.0256151 0.0249966
internal_weight=0 63231 56709 16769 6522 39868 32944 16841 13817 17912 15032 7494 6323 11619 8341 9571 7801 4536 7231 3866 3628 3922 5150 1986 5903 4494 4143 4598 2401 1995
internal_count=80000 63231 56709 16769 6522 39868 32944 16841 13817 17912 15032 7494 6323 11619 8341 9571 7801 4536 7231 3866 3628 3922 5150 1986 5903 4494 4143 4598 2401 1995
is_linear=0
shrinkage=0.05


Tree=9
num_leaves=31
num_cat=0
split_feature=4 5 5 5 5 5 5 3 3 5 3 5 3 0 5 5 1 1 1 0 0 0 6 0 1 0 0 0 6 5
split_gain=45070.6 1294.55 789.288 226.732 169.123 115.202 98.9786 70.1929 63.3256 58.4893 47.0946 25.827 25.6887 25.4802 23.1672 20.4707 18.8066 26.3807 21.153 18.544 18.531 28.3321 19.9071 27.8785 23.2885 18.4954 17.4289 22.024 36.2632 15.989
threshold=1.0000000180025095e-35 0.40500000000000008 0.48500000000000004 0.70500000000000007 0.77500000000000013 0.30500000000000005 0.29500000000000004 1.0000000180025095e-35 1.0000000180025095e-35 0.55500000000000016 1.0000000180025095e-35 0.83500000000000008 1.0000000180025095e-35 26.141793600000003 0.8650000000000001 0.20500000000000004 91.766072850000015 91.786116950000022 91.79542450000001 26.184371050000003 26.162951050000004 26.152426650000006 4.5000000000000009 26.178405600000001 91.754547700000018 26.119980300000005 26.186461550000004 26.186147650000006 1.5000000000000002 0.58500000000000008
decision_type=2 2 2 2 2 2 2 2 2 2 2 2 2 2 2 2 2 2 2 2 2 2 2 2 2 2 2 2 2 2
left_child=2 5 6 7 26 10 -1 9 -7 -3 15 13 19 -6 -5 -2 20 -18 -19 -13 21 -14 23 -22 -25 -9 27 29 -29 -4
right_child=1 3 4 14 11 8 -8 25 -10 -11 -12 12 16 -15 -16 -17 17 18 -20 -21 22 -23 -24 24 -26 -27 -28 28 -30 -31
leaf_value=0.071288172303026531 -0.01197436629606907 -0.025958139481591508 0.056524044750507964 -0.034564147080055438 0.059301698648053763 -0.023163851388551097 0.062073127108592356 -0.006061682206245117 -0.012526210370041591 -0.032191527416338177 -0.0078168077691696154 0.034877001733575191 0.035332647239075123 0.041659253615502573 -0.039881978028021584 -0.016445471617230197 0.078866212385729328 -0.0064939320785924797 0.054900559093406867 0.020417025705589162 0.020134916595064702 0.073136682358063476 -0.0060475231747009923 0.10375461077148265 0.038793329884474342 -0.023186154278866514 0.047557315743032014 0.13470724087885835 0.054044021538605817 0.051480879913675309
leaf_weight=5844 5316 7471 2383 11070 235 4958 5812 162 1949 7583 4154 1080 133 1585 2513 4938 82 20 47 279 106 79 35 22 37 5909 1522 22 38 4616
leaf_count=5844 5316 7471 2383 11070 235 4958 5812 162 1949 7583 4154 1080 133 1585 2513 4938 82 20 47 279 106 79 35 22 37 5909 1522 22 38 4616
internal_value=0 -0.0245519 0.0573664 -0.0305082 0.0485428 -0.0148531 0.0666933 -0.0272677 -0.0201621 -0.029098 -0.0123081 0.0396696 0.0356243 0.0439373 -0.035548 -0.0141275 0.0446259 0.0598488 0.0365738 0.0319084 0.0391205 0.04942 0.028203 0.0354682 0.0630162 -0.0227292 0.0524102 0.0534565 0.0836205 0.053198
internal_weight=0 56023 23977 34708 12321 21315 11656 21125 6907 15054 14408 3740 1920 1820 13583 10254 561 149 67 1359 412 212 200 165 59 6071 8581 7059 60 6999
internal_count=80000 56023 23977 34708 12321 21315 11656 21125 6907 15054 14408 3740 1920 1820 13583 10254 561 149 67 1359 412 212 200 165 59 6071 8581 7059 60 6999
is_linear=0
shrinkage=0.05


Tree=10
num_leaves=31
num_cat=0
split_feature=2 2 2 5 3 5 2 5 3 2 5 5 5 5 5 0 0 5 5 0 5 1 5 5 5 5 1 5 1 6
split_gain=86569.7 45327.2 3205.13 3254.07 867.33 389.385 380.685 347.675 101.826 173.118 81.752 56.1395 45.649 30.3883 12.0606 11.573 10.8207 10.2573 9.37859 8.78956 8.38071 12.0745 8.03529 7.991 7.97399 7.50897 7.35889 8.27468 10.2718 6.79562
threshold=4.5000000000000009 21.500000000000004 7.5000000000000009 0.47500000000000003 1.0000000180025095e-35 0.70500000000000007 3.5000000000000004 0.26500000000000007 1.0000000180025095e-35 22.500000000000004 0.57500000000000007 0.36500000000000005 0.17500000000000002 0.78500000000000014 0.62500000000000011 26.184043550000002 26.127448400000002 0.8650000000000001 0.83500000000000008 26.151151900000006 0.51500000000000012 91.786735700000008 0.25500000000000006 0.41500000000000004 0.33500000000000008 0.42500000000000004 91.64889500000001 0.31500000000000006 91.767789950000022 2.5000000000000004
decision_type=2 2 2 2 2 2 2 2 2 2 2 2 2 2 2 2 2 2 2 2 2 2 2 2 2 2 2 2 2 2
left_child=4 2 -2 7 15 10 16 12 23 26 20 24 -4 -7 -12 19 -6 -15 -11 -1 -5 -22 -18 -3 -9 -13 -10 28 -28 -21
right_child=1 8 3 5 6 13 -8 11 9 18 14 25 -14 17 -16 -17 22 -19 -20 29 21 -23 -24 -25 -26 -27 27 -29 -30 -31
leaf_value=0.092470538592760901 -0.015370220931199078 0.096751405908129681 -0.021728642404559777 -0.046532952569131619 0.11499505418736788 -0.062697190109909248 0.090298366877617081 -0.033342552753971091 0.070754196902585997 0.12219280330609589 -0.054220456384025867 -0.039821345577268519 -0.02862911132370943 -0.066644728817020896 -0.058292026972340739 0.091040034857975558 0.12182222111177309 -0.070842888040577881 0.14150466585860533 0.097420084675962096 -0.05140944243554111 -0.042083286052089913 0.12779237846129576 0.092542729203229063 -0.037450345464254318 -0.043235067553858975 0.091270983470750106 0.096651339519646828 0.066748583445494822 0.094107469219485138
leaf_weight=2986 9948 1858 4412 2353 211 4605 927 4038 37 833 3001 3638 5247 4624 4617 2827 698 2123 68 3114 3152 390 2927 2870 1670 2891 191 610 55 3079
leaf_count=2986 9948 1858 4412 2353 211 4605 927 4038 37 833 3001 3638 5247 4624 4617 2827 698 2123 68 3114 3152 390 2927 2870 1670 2891 191 610 55 3079
internal_value=0 -0.0267853 -0.0411418 -0.0466245 0.101 -0.0590019 0.119053 -0.0325688 0.0980451 0.108187 -0.053267 -0.0381664 -0.0254771 -0.0658285 -0.0566881 0.0938373 0.126002 -0.0679657 0.12365 0.0946988 -0.048846 -0.0503826 0.126643 0.0941966 -0.0345444 -0.0413329 0.0925858 0.0935295 0.0857883 0.0957731
internal_weight=0 63231 56709 46761 16769 24865 4763 21896 6522 1794 13513 12237 9659 11352 7618 12006 3836 6747 901 9179 5895 3542 3625 4728 5708 6529 893 856 246 6193
internal_count=80000 63231 56709 46761 16769 24865 4763 21896 6522 1794 13513 12237 9659 11352 7618 12006 3836 6747 901 9179 5895 3542 3625 4728 5708 6529 893 856 246 6193
is_linear=0
shrinkage=0.05


Tree=11
num_leaves=31
num_cat=0
split_feature=2 2 2 5 3 5 2 5 3 2 5 5 5 5 5 0 0 5 5 0 5 5 1 5 5 2 1 5 1 0
split_gain=78129.1 40907.8 2892.63 2936.8 782.765 351.42 343.568 313.776 91.8976 156.239 73.8334 50.6659 41.1983 27.4254 13.7147 10.5218 10.4446 9.25727 8.46418 7.93258 7.21188 7.19652 6.99228 8.91808 6.77685 6.6724 6.6414 7.4679 9.27031 6.63898
threshold=4.5000000000000009 21.500000000000004 7.5000000000000009 0.47500000000000003 1.0000000180025095e-35 0.70500000000000007 3.5000000000000004 0.26500000000000007 1.0000000180025095e-35 22.500000000000004 0.56500000000000006 0.36500000000000005 0.17500000000000002 0.78500000000000014 0.62500000000000011 26.175058450000005 26.184043550000002 0.8650000000000001 0.83500000000000008 26.151151900000006 0.41500000000000004 0.33500000000000008 91.745291250000022 0.24500000000000002 0.42500000000000004 13.500000000000002 91.64889500000001 0.31500000000000006 91.767789950000022 26.127448400000002
decision_type=2 2 2 2 2 2 2 2 2 2 2 2 2 2 2 2 2 2 2 2 2 2 2 2 2 2 2 2 2 2
left_child=4 2 -2 7 16 10 15 12 20 26 -5 21 -4 -7 -12 29 19 -15 -11 -1 -3 -9 23 -17 25 -13 -10 28 -28 -6
right_child=1 8 3 5 6 13 -8 11 9 18 14 24 -14 17 -16 22 -18 -19 -20 -21 -22 -23 -24 -25 -26 -27 27 -29 -30 -31
leaf_value=0.087847012070092462 -0.014601709750456169 0.091913835834313298 -0.020642209930886311 -0.046006416786679334 0.10924530032827956 -0.059562331012902481 0.08578344806350624 -0.031675425723619262 0.067216487178528628 0.11608316251853792 -0.051257447601838438 -0.035347767361948633 -0.027197655941180079 -0.063312491473776225 -0.055377426232251996 0.10798863768577577 0.086488032847251539 -0.067300745670338655 0.13442943245172501 0.090984481404390527 0.087915593084119892 -0.035577827354971163 0.12223084649939571 0.14513940538678852 -0.041073314313526649 -0.039677284915501404 0.086707434225924973 0.091818773553155167 0.063411154381253498 0.11852450729385354
leaf_weight=2986 9948 1858 4412 5305 211 4605 927 4038 37 833 3591 1552 5247 4624 4617 21 2827 2123 68 6193 2870 1670 1304 70 2891 2086 191 610 55 2230
leaf_count=2986 9948 1858 4412 5305 211 4605 927 4038 37 833 3591 1552 5247 4624 4617 21 2827 2123 68 6193 2870 1670 1304 70 2891 2086 191 610 55 2230
internal_value=0 -0.025446 -0.0390847 -0.0442933 0.0959495 -0.0560518 0.113101 -0.0309403 0.0931428 0.102778 -0.0506036 -0.0362581 -0.0242033 -0.0625371 -0.0535749 0.119702 0.0891454 -0.0645674 0.117468 0.0899638 0.0894868 -0.0328172 0.123166 0.136566 -0.0392663 -0.0378303 0.0879565 0.088853 0.0814989 0.117722
internal_weight=0 63231 56709 46761 16769 24865 4763 21896 6522 1794 13513 12237 9659 11352 8208 3836 12006 6747 901 9179 4728 5708 1395 91 6529 3638 893 856 246 2441
internal_count=80000 63231 56709 46761 16769 24865 4763 21896 6522 1794 13513 12237 9659 11352 8208 3836 12006 6747 901 9179 4728 5708 1395 91 6529 3638 893 856 246 2441
is_linear=0
shrinkage=0.05


Tree=12
num_leaves=31
num_cat=0
split_feature=2 2 2 5 3 5 2 5 3 2 5 5 5 5 5 0 0 5 5 2 5 0 0 5 6 0 5 5 0 5
split_gain=70511.5 36919.3 2610.6 2651.16 706.446 384.752 310.07 226.745 82.9376 141.005 71.84 32.9595 32.6179 24.9201 14.4507 9.49594 9.44792 8.28087 7.63892 7.57028 6.96264 6.80356 6.79279 6.55073 7.88696 7.55756 7.26008 6.50872 6.4961 10.2612
threshold=4.5000000000000009 21.500000000000004 7.5000000000000009 0.51500000000000012 1.0000000180025095e-35 0.32500000000000007 3.5000000000000004 0.70500000000000007 1.0000000180025095e-35 22.500000000000004 0.17500000000000002 0.62500000000000011 0.42500000000000004 0.80500000000000016 0.22500000000000003 26.175058450000005 26.184816700000002 0.55500000000000016 0.83500000000000008 13.500000000000002 0.84500000000000008 26.185591650000003 26.151151900000006 0.45500000000000007 1.0000000180025095e-35 26.198013950000004 0.54500000000000015 0.41500000000000004 26.150397700000003 0.14500000000000005
decision_type=2 2 2 2 2 2 2 2 2 2 2 2 2 2 2 2 2 2 2 2 2 2 2 2 2 2 2 2 2 2
left_child=4 2 -2 5 16 10 15 11 27 -10 -4 17 19 -9 -12 -6 22 -5 -11 -7 23 -22 -1 -18 25 26 -25 28 29 -3
right_child=1 8 3 7 6 12 -8 13 9 18 14 -13 -14 -15 -16 -17 20 -19 -20 -21 21 -23 -24 24 -26 -27 -28 -29 -30 -31
leaf_value=0.083454661988909384 -0.013871624252342396 0.10033885408488533 -0.019610100158839253 -0.044749596467189713 0.11183629161397829 -0.032812979527800955 0.081494275758046963 -0.057090571716826168 0.083558717886002137 0.11027900490368688 -0.024583513865260424 -0.052608555079416267 -0.040314757229407888 -0.06177611576387796 -0.028892417002949169 0.11700768128865296 0.079995286776567517 -0.048442454819702219 0.12770796006216723 -0.036439462583522084 0.04704286320054013 0.076221932571283305 0.086341031826922016 0.049392407927019849 0.086896732259539144 0.10112399334231248 0.076845782281647276 0.083519813221253014 0.08889379478107981 0.078409316357166303
leaf_weight=2986 9948 63 4412 2394 2441 2511 927 5732 893 833 2934 4617 5244 5620 5777 1395 1157 4149 68 3371 23 152 6423 29 1068 26 142 2870 1447 348
leaf_count=2986 9948 63 4412 2394 2441 2511 927 5732 893 833 2934 4617 5244 5620 5777 1395 1157 4149 68 3371 23 152 6423 29 1068 26 142 2870 1447 348
internal_value=0 -0.0241737 -0.0371305 -0.0420786 0.0911521 -0.0306075 0.107446 -0.0544348 0.0884857 0.0976391 -0.0248083 -0.0493738 -0.0374475 -0.0594102 -0.0274411 0.113717 0.0846881 -0.0470913 0.111594 -0.0348913 0.0820184 0.072387 0.085425 0.0827143 0.0852011 0.0760087 0.0721899 0.0850125 0.0873181 0.0817708
internal_weight=0 63231 56709 46761 16769 24249 4763 22512 6522 1794 13123 11160 11126 11352 8711 3836 12006 6543 901 5882 2597 175 9409 2422 1265 197 171 4728 1858 411
internal_count=80000 63231 56709 46761 16769 24249 4763 22512 6522 1794 13123 11160 11126 11352 8711 3836 12006 6543 901 5882 2597 175 9409 2422 1265 197 171 4728 1858 411
is_linear=0
shrinkage=0.05


Tree=13
num_leaves=31
num_cat=0
split_feature=2 2 4 4 4 2 5 2 5 3 5 3 2 5 5 3 2 5 2 3 2 5 5 5 5 5 5 5 5 5
split_gain=63636.7 33319.7 18094.8 17763.1 6901.84 1550.33 1618.18 714.828 786.418 479.973 240.162 212.384 170.45 162.571 119.059 85.4685 99.2084 78.2088 57.0314 28.3615 33.3795 27.086 25.7448 23.933 22.6002 19.0195 16.2224 11.1276 5.98906 5.51149
threshold=4.5000000000000009 21.500000000000004 1.0000000180025095e-35 1.0000000180025095e-35 1.0000000180025095e-35 7.5000000000000009 0.45500000000000007 7.5000000000000009 0.53500000000000014 1.0000000180025095e-35 0.66500000000000015 1.0000000180025095e-35 3.5000000000000004 0.26500000000000007 0.35500000000000004 1.0000000180025095e-35 22.500000000000004 0.76500000000000012 3.5000000000000004 1.0000000180025095e-35 22.500000000000004 0.55500000000000016 0.75500000000000012 0.34500000000000003 0.21500000000000002 0.19500000000000003 0.63500000000000012 0.45500000000000007 0.82500000000000007 0.39500000000000007
decision_type=2 2 2 2 2 2 2 2 2 2 2 2 2 2 2 2 2 2 2 2 2 2 2 2 2 2 2 2 2 2
left_child=3 2 7 11 19 -4 13 -2 14 -5 21 -1 -11 25 24 -6 -17 26 -13 -3 -21 -8 -12 -15 -9 -7 -10 -16 -24 -25
right_child=1 4 5 9 15 6 10 8 17 12 22 18 -14 23 27 16 -18 -19 -20 20 -22 -23 28 29 -26 -27 -28 -29 -30 -31
leaf_value=0.15757982072246188 0.030201312842951602 0.15826420317120526 -0.032123619617312575 0.045895359942150799 0.045723931234855901 -0.037865733386343733 -0.059118532156288497 0.023591313462265021 -0.0015903870015177091 0.074044417350314903 -0.070253515305870234 0.18490565218487565 0.045793561140449322 -0.04739898018746392 0.0095720583705664452 0.046944490439702183 0.074785345881137735 -0.016730524305392552 0.15898777798796254 0.15921429247819177 0.18469795342534781 -0.064704467165261584 -0.073937336815646085 -0.051101308920693179 0.016359967643883398 -0.043214670672976817 -0.0080808464754045829 0.0035858110677732418 -0.077124580065171242 -0.054577650531226665
leaf_weight=3715 3024 1472 6924 8291 3256 3933 4110 1995 1697 2660 3668 1176 668 3253 1741 635 645 2401 259 258 256 4598 2847 2085 2357 2878 2225 1401 3056 2516
leaf_count=3715 3024 1472 6924 8291 3256 3933 4110 1995 1697 2660 3668 1176 668 3253 1741 635 645 2401 259 258 256 4598 2847 2085 2357 2878 2225 1401 3056 2516
internal_value=0 -0.022965 -0.035274 0.0865945 0.0840614 -0.0536306 -0.0581508 0.00818204 0.00336289 0.0523338 -0.0680765 0.16389 0.0683739 -0.0457791 0.01432 0.0500272 0.0609737 -0.0096234 0.180228 0.161795 0.171907 -0.062068 -0.0735432 -0.0506815 0.0196749 -0.0401259 -0.00527251 0.00690282 -0.0755874 -0.0530023
internal_weight=0 63231 56709 16769 6522 39868 32944 16841 13817 11619 18279 5150 3328 14665 7494 4536 1280 6323 1435 1986 514 8708 9571 7854 4352 6811 3922 3142 5903 4601
internal_count=80000 63231 56709 16769 6522 39868 32944 16841 13817 11619 18279 5150 3328 14665 7494 4536 1280 6323 1435 1986 514 8708 9571 7854 4352 6811 3922 3142 5903 4601
is_linear=0
shrinkage=0.05


Tree=14
num_leaves=31
num_cat=0
split_feature=2 2 2 5 3 5 2 5 3 2 5 5 5 5 5 0 5 0 6 1 6 1 1 1 0 1 0 1 5 1
split_gain=57432.1 30071 2126.35 2162.88 575.404 258.751 252.554 231.73 67.5532 114.85 54.4951 37.0172 32.0509 20.4736 7.92221 7.92194 7.72249 7.56075 6.48729 10.0852 11.4308 8.30262 6.89533 6.78444 9.73884 6.65572 6.56575 6.37056 6.34644 5.82949
threshold=4.5000000000000009 21.500000000000004 7.5000000000000009 0.47500000000000003 1.0000000180025095e-35 0.70500000000000007 3.5000000000000004 0.26500000000000007 1.0000000180025095e-35 22.500000000000004 0.57500000000000007 0.36500000000000005 0.15500000000000003 0.78500000000000014 0.62500000000000011 26.175058450000005 0.8650000000000001 26.184043550000002 2.5000000000000004 91.786735700000008 1.0000000180025095e-35 91.682118650000021 91.679597250000015 91.77340150000002 26.177298950000004 91.798168100000012 26.178008800000004 91.785637150000014 0.83500000000000008 91.745291250000022
decision_type=2 2 2 2 2 2 2 2 2 2 2 2 2 2 2 2 2 2 2 2 2 2 2 2 2 2 2 2 2 2
left_child=4 2 -2 7 17 10 15 12 -3 -10 -5 -9 -4 -7 -12 -6 -15 18 19 21 -21 22 -1 24 -23 27 -26 -20 -11 -17
right_child=1 8 3 5 6 13 -8 11 9 28 14 -13 -14 16 -16 29 -18 -19 25 20 -22 23 -24 -25 26 -27 -28 -29 -30 -31
leaf_value=0.076216629962718427 -0.01251914092903525 0.076723757516558952 -0.016688080426952037 -0.039782399576454248 0.10091181068556419 -0.051061553626377376 0.073548583318544664 -0.02814547209605453 0.07541174234187259 0.099514982950932931 -0.044185136427574566 -0.033657909758928156 -0.022780956883473816 -0.054239829941787859 -0.047485035398759319 0.11787055151148157 -0.057882501261457497 0.07417010673748653 0.075748627472949748 0.07631283070406189 0.1256402714798848 0.07883024011764253 0.065352116977608593 0.068014625072236962 0.10271154641439872 0.052326678708195684 0.084461849805028827 0.092868791090917183 0.11540120614363868 0.10478135726637453
leaf_weight=1075 9948 4728 3256 5895 2441 4605 927 5708 893 833 3001 6529 6403 4624 4617 91 2123 2827 4513 23 24 2700 169 123 56 30 411 55 68 1304
leaf_count=1075 9948 4728 3256 5895 2441 4605 927 5708 893 833 3001 6529 6403 4624 4617 91 2123 2827 4513 23 24 2700 169 123 56 30 411 55 68 1304
internal_value=0 -0.0218168 -0.0335103 -0.0379759 0.0822647 -0.0480669 0.0969696 -0.0265167 0.0798583 0.0881193 -0.0433919 -0.0310866 -0.0207271 -0.0536318 -0.0461851 0.10263 -0.055386 0.076431 0.0771274 0.0784591 0.101501 0.0782202 0.0747407 0.0795359 0.0799834 0.0758006 0.0866503 0.0759548 0.100714 0.105635
internal_weight=0 63231 56709 46761 16769 24865 4763 21896 6522 1794 13513 12237 9659 11352 7618 3836 6747 12006 9179 4581 47 4534 1244 3290 3167 4598 467 4568 901 1395
internal_count=80000 63231 56709 46761 16769 24865 4763 21896 6522 1794 13513 12237 9659 11352 7618 3836 6747 12006 9179 4581 47 4534 1244 3290 3167 4598 467 4568 901 1395
is_linear=0
shrinkage=0.05


Tree=15
num_leaves=31
num_cat=0
split_feature=2 2 4 4 4 2 5 2 5 5 5 5 5 2 5 5 2 5 5 5 5 5 2 2 5 5 5 5 5 5
split_gain=51832.5 27139.1 16327.7 16022.8 6230.19 1258.91 1319.17 582.234 645.191 192.658 132.75 97.304 65.2388 38.6984 34.4678 20.6805 18.8913 17.7331 16.7495 13.1434 11.5211 10.5875 7.51205 6.93496 6.81788 5.89702 4.34565 4.06724 3.51668 3.45089
threshold=4.5000000000000009 21.500000000000004 1.0000000180025095e-35 1.0000000180025095e-35 1.0000000180025095e-35 7.5000000000000009 0.50500000000000012 7.5000000000000009 0.53500000000000014 0.31500000000000006 0.67500000000000016 0.34500000000000003 0.76500000000000012 3.5000000000000004 0.22500000000000003 0.42500000000000004 22.500000000000004 0.81500000000000006 0.21500000000000002 0.63500000000000012 0.59500000000000008 0.45500000000000007 22.500000000000004 3.5000000000000004 0.14500000000000005 0.7350000000000001 0.85500000000000009 0.13500000000000004 0.38500000000000006 0.60500000000000009
decision_type=2 2 2 2 2 2 2 2 2 2 2 2 2 2 2 2 2 2 2 2 2 2 2 2 2 2 2 2 2 2
left_child=3 2 7 23 22 29 9 -2 11 14 20 18 19 -5 24 28 -6 25 27 -10 -8 -13 -3 -1 -7 -12 -14 -9 -11 -4
right_child=1 4 5 13 16 6 10 8 12 15 17 21 26 -15 -16 -17 -18 -19 -20 -21 -22 -23 -24 -25 -26 -27 -28 -29 -30 -31
leaf_value=0.1524589368674468 0.029317204172802515 0.14666946635141478 -0.030749070486382292 0.047074348826274447 0.040295763228935778 -0.033370279390812302 -0.05645966352312131 0.026750666026084315 0.00062100148516798775 -0.045944617378626644 -0.063885720333474588 0.01103624760863583 -0.011640425870121001 0.039916626467723995 -0.042116135067656907 -0.052226087762969921 0.046749257061539221 -0.070283567827240351 0.017067158576671182 -0.0052211366400804135 -0.060496179317364097 0.0053121446478040998 0.15281986998422498 0.14780453024309892 -0.037151618389633635 -0.067139397809389878 -0.016139422934876042 0.021879080248785848 -0.048813799719153395 -0.028438585932602733
leaf_weight=4159 3024 1001 4354 9246 2263 1863 3768 623 1697 2864 2435 1908 1591 2373 3688 3264 2273 3466 2190 2225 3330 1401 985 991 3310 3253 810 1372 1703 2570
leaf_count=4159 3024 1001 4354 9246 2263 1863 3768 623 1697 2864 2435 1908 1591 2373 3688 3264 2273 3466 2190 2225 3330 1401 985 991 3310 3253 810 1372 1703 2570
internal_value=0 -0.020726 -0.0318347 0.0781515 0.0758654 -0.049272 -0.0533453 0.00944478 0.00509548 -0.0434727 -0.0634852 0.0150201 -0.00666709 0.0456125 -0.0384229 -0.0491867 0.0435296 -0.0674644 0.0200862 -0.00269332 -0.0583534 0.00861272 0.14972 0.151563 -0.0357898 -0.0657465 -0.0131582 0.0234004 -0.0470145 -0.0298915
internal_weight=0 63231 56709 16769 6522 39868 32944 16841 13817 16692 16252 7494 6323 11619 8861 7831 4536 9154 4185 3922 7098 3309 1986 5150 5173 5688 2401 1995 4567 6924
internal_count=80000 63231 56709 16769 6522 39868 32944 16841 13817 16692 16252 7494 6323 11619 8861 7831 4536 9154 4185 3922 7098 3309 1986 5150 5173 5688 2401 1995 4567 6924
is_linear=0
shrinkage=0.05


Tree=16
num_leaves=31
num_cat=0
split_feature=2 2 4 4 4 2 5 2 5 3 5 3 2 5 5 3 2 5 2 5 3 2 5 5 5 5 5 5 5 5
split_gain=46778.8 24493 14735.7 14460.5 5622.74 1136.17 1190.55 525.466 582.285 392.531 173.874 173.649 133.812 119.807 87.8169 71.2014 79.1684 58.878 44.6189 31.1072 23.367 26.2829 18.7205 16.0041 15.1164 11.8619 10.3978 9.55525 6.20584 5.32206
threshold=4.5000000000000009 21.500000000000004 1.0000000180025095e-35 1.0000000180025095e-35 1.0000000180025095e-35 7.5000000000000009 0.50500000000000012 7.5000000000000009 0.53500000000000014 1.0000000180025095e-35 0.31500000000000006 1.0000000180025095e-35 3.5000000000000004 0.67500000000000016 0.34500000000000003 1.0000000180025095e-35 22.500000000000004 0.76500000000000012 3.5000000000000004 0.22500000000000003 1.0000000180025095e-35 22.500000000000004 0.40500000000000008 0.81500000000000006 0.21500000000000002 0.63500000000000012 0.59500000000000008 0.45500000000000007 0.13500000000000004 0.7350000000000001
decision_type=2 2 2 2 2 2 2 2 2 2 2 2 2 2 2 2 2 2 2 2 2 2 2 2 2 2 2 2 2 2
left_child=3 2 7 11 20 -4 10 -2 14 -5 19 -1 -11 26 24 -6 -17 25 -13 28 -3 -22 -12 29 -9 -10 -8 -16 -7 -15
right_child=1 4 5 9 15 6 13 8 17 12 22 18 -14 23 27 16 -18 -19 -20 -21 21 -23 -24 -25 -26 -27 -28 -29 -30 -31
leaf_value=0.13827890327047374 0.027851343896745002 0.13902903426762508 -0.028396907599875461 0.037509352170631595 0.037425421240481468 -0.031219999702891528 -0.053636680231579172 0.022230363418216839 0.00058995147510771621 0.062861695277305049 -0.044152180423416294 0.16289533627580624 0.037830622318340799 -0.060691434040080441 0.010484435357462088 0.038811890292824724 0.06368237514438671 -0.012500294632950971 0.13997073537134294 -0.040010328212927312 0.14014951492002767 0.16276253811083735 -0.049048137845926876 -0.066769390124890776 0.016213800820672714 -0.0049600796009795847 -0.057471370437582686 0.0050465373292349798 -0.03507902697510535 -0.063782428338992891
leaf_weight=3715 3024 1472 6924 8291 3256 1446 3768 1995 1697 2660 3712 1176 668 2435 1908 635 645 2401 259 3688 258 256 4119 3466 2190 2225 3330 1401 3727 3253
leaf_count=3715 3024 1472 6924 8291 3256 1446 3768 1995 1697 2660 3712 1176 668 2435 1908 635 645 2401 259 3688 258 256 4119 3466 2190 2225 3330 1401 3727 3253
internal_value=0 -0.0196897 -0.030243 0.0742439 0.0720721 -0.0468084 -0.050678 0.00897254 0.00484071 0.0433319 -0.0412991 0.143985 0.0578374 -0.0603109 0.0142691 0.0413531 0.0513443 -0.00633374 0.158758 -0.0365017 0.142234 0.151412 -0.0467274 -0.0640912 0.0190819 -0.00255865 -0.0554357 0.00818208 -0.0340003 -0.0624592
internal_weight=0 63231 56709 16769 6522 39868 32944 16841 13817 11619 16692 5150 3328 16252 7494 4536 1280 6323 1435 8861 1986 514 7831 9154 4185 3922 7098 3309 5173 5688
internal_count=80000 63231 56709 16769 6522 39868 32944 16841 13817 11619 16692 5150 3328 16252 7494 4536 1280 6323 1435 8861 1986 514 7831 9154 4185 3922 7098 3309 5173 5688
is_linear=0
shrinkage=0.05


Tree=17
num_leaves=31
num_cat=0
split_feature=2 2 4 4 4 2 5 2 5 3 5 3 2 5 5 3 2 5 2 3 2 5 5 5 5 5 5 5 5 5
split_gain=42217.9 22105 13299 13050.6 5074.52 1025.39 1075.47 474.233 525.512 354.259 159.336 156.719 120.765 108.543 79.4276 64.2593 71.4495 53.1374 40.2685 21.0887 23.7203 17.9238 17.1271 15.7722 14.9887 13.715 10.7054 7.3905 4.01443 3.96446
threshold=4.5000000000000009 21.500000000000004 1.0000000180025095e-35 1.0000000180025095e-35 1.0000000180025095e-35 7.5000000000000009 0.45500000000000007 7.5000000000000009 0.53500000000000014 1.0000000180025095e-35 0.66500000000000015 1.0000000180025095e-35 3.5000000000000004 0.27500000000000008 0.35500000000000004 1.0000000180025095e-35 22.500000000000004 0.76500000000000012 3.5000000000000004 1.0000000180025095e-35 22.500000000000004 0.55500000000000016 0.75500000000000012 0.19500000000000003 0.21500000000000002 0.38500000000000006 0.63500000000000012 0.45500000000000007 0.82500000000000007 0.72500000000000009
decision_type=2 2 2 2 2 2 2 2 2 2 2 2 2 2 2 2 2 2 2 2 2 2 2 2 2 2 2 2 2 2
left_child=3 2 7 11 19 -4 13 -2 14 29 21 -1 -11 23 24 -6 -17 26 -13 -3 -21 -8 -12 -7 -9 -15 -10 -16 -24 -5
right_child=1 4 5 9 15 6 10 8 17 12 22 18 -14 25 27 16 -18 -19 -20 20 -22 -23 28 -25 -26 -27 -28 -29 -30 -31
leaf_value=0.13136495668345793 0.026458776729057096 0.13207758298022268 -0.026977062034611012 0.035051595328313825 0.035554150127511445 -0.031558272655691715 -0.048942543618256257 0.021118845364677296 0.00056045391756399585 0.059718610474851191 -0.058005515849872846 0.15475056715258936 0.035939091117704054 -0.040563605950414555 0.0096727704822965367 0.036871295761771679 0.060498256570146992 -0.01187527998903691 0.1329721981494123 0.13314204088939252 0.15462441130075605 -0.053486554788588693 -0.061005109910462131 -0.036246709462747252 0.015229786352805806 -0.044955871091022309 -0.0047120755888692377 0.0047942106451633638 -0.063614552218835149 0.037686835213103759
leaf_weight=3715 3024 1472 6924 6459 3256 3933 4110 1995 1697 2660 3668 1176 668 4494 1741 635 645 2401 259 258 256 4598 2847 3298 2357 2940 2225 1401 3056 1832
leaf_count=3715 3024 1472 6924 6459 3256 3933 4110 1995 1697 2660 3668 1176 668 4494 1741 635 645 2401 259 258 256 4598 2847 3298 2357 2940 2225 1401 3056 1832
internal_value=0 -0.0187052 -0.0287309 0.0705317 0.0684685 -0.044468 -0.0481441 0.00852391 0.00459867 0.0411653 -0.0562359 0.136786 0.0549456 -0.0380582 0.0135556 0.0392855 0.0487771 -0.00601705 0.15082 0.135122 0.143841 -0.0513419 -0.0606887 -0.0336966 0.0179294 -0.0423007 -0.00243072 0.00749745 -0.062356 0.0356339
internal_weight=0 63231 56709 16769 6522 39868 32944 16841 13817 11619 18279 5150 3328 14665 7494 4536 1280 6323 1435 1986 514 8708 9571 7231 4352 7434 3922 3142 5903 8291
internal_count=80000 63231 56709 16769 6522 39868 32944 16841 13817 11619 18279 5150 3328 14665 7494 4536 1280 6323 1435 1986 514 8708 9571 7231 4352 7434 3922 3142 5903 8291
is_linear=0
shrinkage=0.05


Tree=18
num_leaves=31
num_cat=0
split_feature=2 2 4 4 4 2 5 2 5 5 5 5 5 2 5 2 5 5 5 5 5 5 2 5 2 5 5 5 0 1
split_gain=38101.6 19949.7 12002.4 11778.2 4579.76 925.417 971.444 427.996 474.275 132.319 106.445 71.9509 47.9565 28.0836 25.4478 13.4349 13.336 13.0621 11.6151 10.5346 9.77931 9.66161 5.51457 5.36616 4.58891 4.44262 3.92195 3.11442 2.97726 2.68501
threshold=4.5000000000000009 21.500000000000004 1.0000000180025095e-35 1.0000000180025095e-35 1.0000000180025095e-35 7.5000000000000009 0.49500000000000005 7.5000000000000009 0.53500000000000014 0.31500000000000006 0.67500000000000016 0.31500000000000006 0.76500000000000012 3.5000000000000004 0.22500000000000003 22.500000000000004 0.42500000000000004 0.81500000000000006 0.43500000000000005 0.58500000000000008 0.15500000000000003 0.63500000000000012 22.500000000000004 0.14500000000000005 3.5000000000000004 0.7350000000000001 0.85500000000000009 0.60500000000000009 26.189001800000003 91.763257450000012
decision_type=2 2 2 2 2 2 2 2 2 2 2 2 2 2 2 2 2 2 2 2 2 2 2 2 2 2 2 2 2 2
left_child=3 2 7 24 22 27 9 -2 11 14 19 20 21 28 23 -6 -11 25 -13 -8 -9 -10 -3 -7 29 -12 -14 -4 -5 -1
right_child=1 4 5 13 15 6 10 8 12 16 17 18 26 -15 -16 -17 -18 -19 -20 -21 -22 -23 -24 -25 -26 -27 -28 -29 -30 -31
leaf_value=0.12993825559712621 0.025135838140615891 0.12575250515987824 -0.026442918231243475 0.040020936688648874 0.034594064695369436 -0.028519662519406616 -0.047925001782567783 0.022118877375908823 0.00053243113929802601 -0.04030027747342637 -0.054756587080607766 0.010586944834591673 -0.0098396257818116045 0.034254801309166472 -0.036102078722888897 0.04003635965113754 -0.04465429604677118 -0.060265626623488715 0.0050411583742179609 -0.051672407839824547 0.016299762667443964 -0.0044764719843469417 0.1310221363657017 -0.031874353125919318 0.1268889993399111 -0.057580673383019781 -0.014113673084389626 -0.024247958246432336 0.042781442036151654 0.13286539901122665
leaf_weight=3112 3024 1001 4354 8136 2263 1863 3724 985 1697 4567 2435 2067 1591 2373 3688 2273 2860 3466 1738 3778 2704 2225 985 3310 991 3253 810 2570 1110 1047
leaf_count=3112 3024 1001 4354 8136 2263 1863 3724 985 1697 4567 2435 2067 1591 2373 3688 2273 2860 3466 1738 3778 2704 2225 985 3310 991 3253 810 2570 1110 1047
internal_value=0 -0.0177699 -0.0272943 0.0670051 0.0650451 -0.0422446 -0.0457369 0.00809772 0.00436874 -0.0370545 -0.0542275 0.0128778 -0.0057162 0.039107 -0.0329286 0.0373212 -0.0419769 -0.0578461 0.00805381 -0.0498122 0.0178535 -0.00230918 0.128366 -0.0306662 0.129947 -0.0563717 -0.0112815 -0.0256282 0.0403523 0.130675
internal_weight=0 63231 56709 16769 6522 39868 32944 16841 13817 16288 16656 7494 6323 11619 8861 4536 7427 9154 3805 7502 3689 3922 1986 5173 5150 5688 2401 6924 9246 4159
internal_count=80000 63231 56709 16769 6522 39868 32944 16841 13817 16288 16656 7494 6323 11619 8861 4536 7427 9154 3805 7502 3689 3922 1986 5173 5150 5688 2401 6924 9246 4159
is_linear=0
shrinkage=0.05


Tree=19
num_leaves=31
num_cat=0
split_feature=2 2 4 4 4 2 5 2 5 3 3 5 2 5 5 3 2 5 2 5 3 2 5 5 5 5 5 5 5 5
split_gain=34386.7 18004.6 10832.1 10629.8 4133.23 835.189 877.246 386.266 428.033 319.682 141.334 128.611 106.072 88.0539 65.1646 57.9842 62.9291 43.5085 35.6691 28.3493 19.0301 20.8584 14.3566 12.4658 9.67848 7.6831 7.13484 6.04182 5.05716 4.92877
threshold=4.5000000000000009 21.500000000000004 1.0000000180025095e-35 1.0000000180025095e-35 1.0000000180025095e-35 7.5000000000000009 0.50500000000000012 7.5000000000000009 0.53500000000000014 1.0000000180025095e-35 1.0000000180025095e-35 0.33500000000000008 3.5000000000000004 0.70500000000000007 0.35500000000000004 1.0000000180025095e-35 22.500000000000004 0.72500000000000009 3.5000000000000004 0.22500000000000003 1.0000000180025095e-35 22.500000000000004 0.62500000000000011 0.21500000000000002 0.42500000000000004 0.81500000000000006 0.79500000000000015 0.45500000000000007 0.63500000000000012 0.13500000000000004
decision_type=2 2 2 2 2 2 2 2 2 2 2 2 2 2 2 2 2 2 2 2 2 2 2 2 2 2 2 2 2 2
left_child=3 2 7 10 20 -4 11 -2 14 -5 -1 19 -11 22 23 -6 -17 28 -12 29 -3 -22 -8 -9 -13 -15 -19 -16 -10 -7
right_child=1 4 5 9 15 6 13 8 17 12 18 24 -14 25 27 16 -18 26 -20 -21 21 -23 -24 -25 -26 -27 -28 -29 -30 -31
leaf_value=0.11830127581853725 0.023879045985954236 0.11905559015500805 -0.024346798733378278 0.031897147363812703 0.031910682170255271 -0.026655102562522234 -0.046452733994403243 0.019104260093991163 0.00050580955866589661 0.054715443773464746 0.14047605357810752 -0.038817666489745731 0.03242939675711639 -0.054115965405136704 0.0087134586956629772 0.033298028149040725 0.05547152557778498 -0.0066719456766727945 0.1199791370211421 -0.034562924132197664 0.12019731270712475 0.14034208371303977 -0.050707780322761555 0.013733656756766403 -0.042537836933543613 -0.057252345467369306 -0.01159645035139021 0.0043024421217924469 -0.0034541418469189013 -0.03009421748060372
leaf_weight=3715 3024 1472 6924 8291 3256 1446 5051 1995 1697 2660 1176 3765 668 4472 1741 635 645 1207 259 4490 258 256 3263 2357 3264 3466 1883 1401 1536 3727
leaf_count=3715 3024 1472 6924 8291 3256 1446 5051 1995 1697 2660 1176 3765 668 4472 1741 635 645 1207 259 4490 258 256 3263 2357 3264 3466 1883 1401 1536 3727
internal_value=0 -0.0168814 -0.0259296 0.0636549 0.0617928 -0.0401324 -0.0434501 0.00769283 0.0041503 0.0371517 0.123449 -0.0353992 0.0502422 -0.0517189 0.0122339 0.0354552 0.0444714 -0.00543039 0.136777 -0.031656 0.121948 0.130231 -0.0481227 0.0161956 -0.0405452 -0.0554854 -0.00967287 0.00674661 -0.00137557 -0.0291329
internal_weight=0 63231 56709 16769 6522 39868 32944 16841 13817 11619 5150 16692 3328 16252 7494 4536 1280 6323 1435 9663 1986 514 8314 4352 7029 7938 3090 3142 3233 5173
internal_count=80000 63231 56709 16769 6522 39868 32944 16841 13817 11619 5150 16692 3328 16252 7494 4536 1280 6323 1435 9663 1986 514 8314 4352 7029 7938 3090 3142 3233 5173
is_linear=0
shrinkage=0.05


Tree=20
num_leaves=31
num_cat=0
split_feature=2 2 4 4 4 2 5 2 5 3 3 5 2 5 5 3 2 5 2 5 3 2 5 5 5 5 5 5 5 5
split_gain=31034 16249.2 9775.99 9593.42 3730.24 753.758 791.714 348.605 386.3 288.513 127.554 116.072 95.73 79.483 59.042 52.3307 56.7936 39.2665 32.1914 25.5852 17.1746 18.8247 11.1713 9.0452 8.73483 8.40541 8.11619 6.43919 4.60237 4.44821
threshold=4.5000000000000009 21.500000000000004 1.0000000180025095e-35 1.0000000180025095e-35 1.0000000180025095e-35 7.5000000000000009 0.50500000000000012 7.5000000000000009 0.53500000000000014 1.0000000180025095e-35 1.0000000180025095e-35 0.33500000000000008 3.5000000000000004 0.69500000000000006 0.32500000000000007 1.0000000180025095e-35 22.500000000000004 0.72500000000000009 3.5000000000000004 0.22500000000000003 1.0000000180025095e-35 22.500000000000004 0.62500000000000011 0.15500000000000003 0.42500000000000004 0.43500000000000005 0.81500000000000006 0.79500000000000015 0.6150000000000001 0.13500000000000004
decision_type=2 2 2 2 2 2 2 2 2 2 2 2 2 2 2 2 2 2 2 2 2 2 2 2 2 2 2 2 2 2
left_child=3 2 7 10 20 -4 11 -2 14 -5 -1 19 -11 22 23 -6 -17 28 -12 29 -3 -22 -8 -9 -13 -16 -15 -19 -10 -7
right_child=1 4 5 9 15 6 13 8 17 12 18 24 -14 26 25 16 -18 27 -20 -21 21 -23 -24 -25 -26 -27 -28 -29 -30 -31
leaf_value=0.11238621186841065 0.02268509357034601 0.11310281067600716 -0.023129458544990759 0.030302290075721057 0.030315147955575557 -0.025322347914592015 -0.044130097437623972 0.020057720706241469 0.00090710981501187615 0.051979671193273541 0.13345224807913206 -0.0368767828934988 0.030807926934100911 -0.051224200148144688 0.0093487737720644587 0.031633126391519571 0.052697950149814113 -0.006338348308607647 0.11398018202726445 -0.032834777578622451 0.11418744739173919 0.13332497987430544 -0.048038716672210234 0.014507372552201955 -0.04041094511801431 0.0045312132870885735 -0.054389728188956189 -0.011016627746636101 -0.0029143150710675804 -0.028589506712509136
leaf_weight=3715 3024 1472 6924 8291 3256 1446 5051 985 1360 2660 1176 3765 668 4870 1890 635 645 1207 259 4490 258 256 2865 2881 3264 1738 3466 1883 1873 3727
leaf_count=3715 3024 1472 6924 8291 3256 1446 5051 985 1360 2660 1176 3765 668 4870 1890 635 645 1207 259 4490 258 256 2865 2881 3264 1738 3466 1883 1873 3727
internal_value=0 -0.0160373 -0.0246331 0.0604721 0.0587032 -0.0381257 -0.0412776 0.00730819 0.00394279 0.0352941 0.117277 -0.0336293 0.0477301 -0.0491329 0.0116222 0.0336824 0.0422478 -0.00515887 0.129938 -0.0300732 0.11585 0.123719 -0.0455447 0.0159215 -0.0385179 0.00704091 -0.0525404 -0.00918922 -0.00130679 -0.0276762
internal_weight=0 63231 56709 16769 6522 39868 32944 16841 13817 11619 5150 16692 3328 16252 7494 4536 1280 6323 1435 9663 1986 514 7916 3866 7029 3628 8336 3090 3233 5173
internal_count=80000 63231 56709 16769 6522 39868 32944 16841 13817 11619 5150 16692 3328 16252 7494 4536 1280 6323 1435 9663 1986 514 7916 3866 7029 3628 8336 3090 3233 5173
is_linear=0
shrinkage=0.05


Tree=21
num_leaves=31
num_cat=0
split_feature=2 2 2 5 3 5 2 5 3 2 5 5 5 5 5 2 0 5 1 0 1 0 5 1 5 2 1 5 5 1
split_gain=28008.2 14664.9 1036.97 1061.12 347.299 154.807 141.47 91.3322 42.3731 65.5559 33.7518 15.0206 10.3417 10.3289 6.79179 5.69859 4.28759 3.99917 7.16086 4.7131 4.35874 3.76115 3.57233 4.71976 3.44101 3.3683 3.29319 4.88459 3.2334 3.19741
threshold=4.5000000000000009 21.500000000000004 7.5000000000000009 0.51500000000000012 1.0000000180025095e-35 0.33500000000000008 3.5000000000000004 0.71500000000000008 1.0000000180025095e-35 22.500000000000004 0.17500000000000002 0.62500000000000011 0.42500000000000004 0.85500000000000009 0.26500000000000007 13.500000000000002 26.175058450000005 0.34500000000000003 91.687025200000008 26.143882850000004 91.767789950000022 26.195783550000005 0.56500000000000006 91.786735700000008 0.83500000000000008 16.500000000000004 91.745291250000022 0.24500000000000002 0.84500000000000008 91.713494300000022
decision_type=2 2 2 2 2 2 2 2 2 2 2 2 2 2 2 2 2 2 2 2 2 2 2 2 2 2 2 2 2 2
left_child=4 2 -2 5 28 10 16 11 29 17 -4 22 15 -9 -12 -7 -6 20 19 -19 -10 -20 23 -5 -11 -13 27 -18 -1 -3
right_child=1 8 3 7 6 12 -8 13 9 24 14 25 -14 -15 -16 -17 26 18 21 -21 -22 -23 -24 -25 -26 -27 -28 -29 -30 -31
leaf_value=0.053134987002752709 -0.0087425829110232955 0.054787085969093131 -0.012155677377940169 -0.029114079152624619 0.071845143356224869 -0.020359657076654186 0.051343618597966351 -0.03676308587888185 0.051081565065780467 0.070943245481971381 -0.016280933106069401 -0.032335903491601072 -0.025389234488818177 -0.040327502116302011 -0.019008744068886332 -0.023671989468276144 0.063366655579635084 0.033128155557874669 0.059760499385987188 0.051566161410741967 0.036190824596316465 0.037535548163577917 -0.030752647598669559 -0.022769327022463339 0.082640883570317847 -0.034984437543069055 0.074678302396580215 0.090861165459666937 0.049837071351392107 0.052159567262447283
leaf_weight=11210 9948 2026 4412 2622 2441 2265 927 8049 237 833 5247 3321 5244 2719 4038 3043 21 47 395 132 62 20 3591 330 68 1880 1304 70 796 2702
leaf_count=11210 9948 2026 4412 2622 2441 2265 927 8049 237 833 5247 3321 5244 2719 4038 3043 21 47 395 132 62 20 3591 330 68 1880 1304 70 796 2702
internal_value=0 -0.0152355 -0.0234015 -0.02652 0.0574485 -0.0192628 0.0688728 -0.0343372 0.055768 0.0623107 -0.0157563 -0.0312876 -0.0238144 -0.0376631 -0.0174672 -0.0222586 0.0731088 0.05271 0.0550839 0.0467249 0.0479939 0.0586894 -0.0296934 -0.0284048 0.0718261 -0.0332933 0.0753201 0.0845163 0.0529163 0.0532855
internal_weight=0 63231 56709 46761 16769 24249 4763 22512 6522 1794 13697 11744 10552 10768 9285 5308 3836 893 594 179 299 415 6543 2952 901 5201 1395 91 12006 4728
internal_count=80000 63231 56709 46761 16769 24249 4763 22512 6522 1794 13697 11744 10552 10768 9285 5308 3836 893 594 179 299 415 6543 2952 901 5201 1395 91 12006 4728
is_linear=0
shrinkage=0.05


Tree=22
num_leaves=31
num_cat=0
split_feature=2 2 4 4 4 2 5 2 5 3 3 5 2 5 5 3 2 5 2 3 2 5 5 5 5 5 5 5 5 5
split_gain=25277.4 13235.1 8820.75 8656.69 3365.51 611.934 645.041 283.984 317.173 236.194 104.058 95.7717 77.3441 65.9809 56.1732 43.7154 46.3107 25.8531 25.6986 13.9867 15.3981 11.9807 10.8972 10.8315 9.65464 8.57876 6.22056 4.74008 3.73428 3.66437
threshold=4.5000000000000009 21.500000000000004 1.0000000180025095e-35 1.0000000180025095e-35 1.0000000180025095e-35 7.5000000000000009 0.45500000000000007 7.5000000000000009 0.45500000000000007 1.0000000180025095e-35 1.0000000180025095e-35 0.66500000000000015 3.5000000000000004 0.27500000000000008 0.66500000000000015 1.0000000180025095e-35 22.500000000000004 0.27500000000000008 3.5000000000000004 1.0000000180025095e-35 22.500000000000004 0.79500000000000015 0.55500000000000016 0.75500000000000012 0.19500000000000003 0.38500000000000006 0.56500000000000006 0.13500000000000004 0.72500000000000009 0.39500000000000007
decision_type=2 2 2 2 2 2 2 2 2 2 2 2 2 2 2 2 2 2 2 2 2 2 2 2 2 2 2 2 2 2
left_child=3 2 7 10 19 -4 13 -2 17 28 -1 22 -11 24 26 -6 -17 27 -12 -3 -21 -16 -8 -13 -7 -15 -10 -9 -5 -19
right_child=1 4 5 9 15 6 11 8 14 12 18 23 -14 25 21 16 -18 29 -20 20 -22 -23 -24 -25 -26 -27 -28 -29 -30 -31
leaf_value=0.10411902939747833 0.021987968273481269 0.10478167956411516 -0.021535856544719702 0.025577147472434697 0.026135892148405448 -0.025003089939169856 -0.038489346950681888 0.02078941316368323 0.0048681547390724755 0.045730677589607721 0.12311191013982509 -0.045472824186207392 0.026700349906130072 -0.032010557387079808 -0.0031623432576730129 0.027457026814359908 0.046478711892092649 0.011641023111267513 0.10571399118219103 0.10574152592078662 0.12304987985407934 -0.0085509777937307126 -0.042032431956484949 -0.048932555723625468 -0.028671263308189344 -0.035484345279931766 0.00067167069390638512 0.0158899819613827 0.028134741498024397 0.0080195027479664834
leaf_weight=3715 3024 1472 6924 6459 3256 3933 4110 623 1937 2660 1176 3668 668 4494 2281 635 645 2026 259 258 256 1883 4598 5903 3298 2940 1623 2378 1832 1066
leaf_count=3715 3024 1472 6924 6459 3256 3933 4110 623 1937 2660 1176 3668 668 4494 2281 635 645 2026 259 258 256 1883 4598 5903 3298 2940 1623 2378 1832 1066
internal_value=0 -0.0144737 -0.0222314 0.0545761 0.0529796 -0.0350479 -0.0378877 0.00810927 0.00507177 0.0306588 0.108536 -0.0441545 0.0419109 -0.0300767 -0.00165653 0.0292135 0.0370422 0.0136011 0.119972 0.107261 0.114362 -0.00559913 -0.0403602 -0.0476066 -0.0266761 -0.0333844 0.00295498 0.0169071 0.0261423 0.0103925
internal_weight=0 63231 56709 16769 6522 39868 32944 16841 13817 11619 5150 18279 3328 14665 7724 4536 1280 6093 1435 1986 514 4164 8708 9571 7231 7434 3560 3001 8291 3092
internal_count=80000 63231 56709 16769 6522 39868 32944 16841 13817 11619 5150 18279 3328 14665 7724 4536 1280 6093 1435 1986 514 4164 8708 9571 7231 7434 3560 3001 8291 3092
is_linear=0
shrinkage=0.05


Tree=23
num_leaves=31
num_cat=0
split_feature=2 2 4 4 4 2 5 2 5 5 5 5 5 2 5 5 5 5 5 2 5 5 5 2 5 5 0 5 0 0
split_gain=22812.8 11944.6 7960.73 7812.66 3037.38 552.271 582.15 256.295 286.248 86.4486 59.5478 50.6963 23.3325 15.8544 13.4301 10.8126 8.77088 7.81323 7.60065 7.28638 5.61405 4.27792 3.30709 3.24438 3.08599 2.81077 2.69795 2.39536 2.37119 2.29016
threshold=4.5000000000000009 21.500000000000004 1.0000000180025095e-35 1.0000000180025095e-35 1.0000000180025095e-35 7.5000000000000009 0.45500000000000007 7.5000000000000009 0.45500000000000007 0.64500000000000013 0.27500000000000008 0.66500000000000015 0.27500000000000008 3.5000000000000004 0.7350000000000001 0.79500000000000015 0.16500000000000004 0.37500000000000006 0.53500000000000014 22.500000000000004 0.56500000000000006 0.13500000000000004 0.39500000000000007 22.500000000000004 0.87500000000000011 0.60500000000000009 26.189001800000003 0.22500000000000003 26.149713700000003 26.117071950000003
decision_type=2 2 2 2 2 2 2 2 2 2 2 2 2 2 2 2 2 2 2 2 2 2 2 2 2 2 2 2 2 2
left_child=3 2 7 -1 23 25 10 -2 12 18 16 20 21 26 -11 -13 -7 -12 -8 -6 -10 -9 -14 -3 -16 -4 -5 -18 -23 -21
right_child=1 4 5 13 19 6 9 8 11 14 17 15 22 -15 24 -17 27 -19 -20 29 -22 28 -24 -25 -26 -27 -28 -29 -30 -31
leaf_value=0.10310944399975458 0.020888569785253167 0.09989343734530659 -0.021233037574149669 0.029746114777313537 0.025744443179421112 -0.023079120486688507 -0.036164730423439435 0.019749942925320656 0.0046247470403625261 -0.042510071474183661 -0.030241868101239463 -0.0030042261286874062 0.011058971979400421 0.025480134939534785 -0.045806325616131009 -0.0081234288986126724 -0.025637032974705598 -0.033498603480644353 -0.039312269860971416 0.040919847057925333 0.00063808716626152697 0.012179107883152879 0.0076185275841069476 0.10393537953949822 -0.048731481645365643 -0.019147825383177844 0.032373940368705521 -0.027943675878141061 0.01595025491645502 0.029526820341518586
leaf_weight=5150 3024 1001 4354 8136 2263 2689 3282 623 1937 3663 4071 2281 2026 2373 5646 1883 2484 3363 4615 45 1623 539 1066 985 1073 2570 1110 2058 1839 2228
leaf_count=5150 3024 1001 4354 8136 2263 2689 3282 623 1937 3663 4071 2281 2026 2373 5646 1883 2484 3363 4615 45 1623 539 1066 985 1073 2570 1110 2058 1839 2228
internal_value=0 -0.01375 -0.0211198 0.0518473 0.0503307 -0.0332955 -0.0359934 0.00770381 0.00481818 -0.0419467 -0.0285728 -0.00157371 0.0129211 0.0291259 -0.0449457 -0.00531918 -0.0253423 -0.0317152 -0.0380041 0.0277528 0.00280723 0.0160617 0.00987284 0.101898 -0.0462735 -0.0204591 0.0300616 -0.0266822 0.0150955 0.0297524
internal_weight=0 63231 56709 16769 6522 39868 32944 16841 13817 18279 14665 7724 6093 11619 10382 4164 7231 7434 7897 4536 3560 3001 3092 1986 6719 6924 9246 4542 2378 2273
internal_count=80000 63231 56709 16769 6522 39868 32944 16841 13817 18279 14665 7724 6093 11619 10382 4164 7231 7434 7897 4536 3560 3001 3092 1986 6719 6924 9246 4542 2378 2273
is_linear=0
shrinkage=0.05


Tree=24
num_leaves=31
num_cat=0
split_feature=2 2 2 5 3 5 2 5 3 2 5 5 5 5 2 5 5 0 6 5 1 0 1 0 5 1 5 0 5 0
split_gain=20588.6 10780 762.267 781.878 284.043 114.719 112.151 67.6133 35.268 52.244 25.078 11.1793 8.17087 7.39884 4.7433 4.64049 3.69713 3.47514 3.88633 3.27309 5.51331 3.68617 3.33932 3.09643 3.05134 3.01842 3.0912 2.9292 2.74747 3.28514
threshold=4.5000000000000009 21.500000000000004 7.5000000000000009 0.51500000000000012 1.0000000180025095e-35 0.33500000000000008 3.5000000000000004 0.71500000000000008 1.0000000180025095e-35 22.500000000000004 0.17500000000000002 0.59500000000000008 0.85500000000000009 0.42500000000000004 13.500000000000002 0.26500000000000007 0.23500000000000001 26.184043550000002 2.5000000000000004 0.34500000000000003 91.687025200000008 26.143882850000004 91.767789950000022 26.185870700000002 0.56500000000000006 91.786735700000008 0.57500000000000007 26.195783550000005 0.13500000000000004 26.120889050000002
decision_type=2 2 2 2 2 2 2 2 2 2 2 2 2 2 2 2 2 2 2 2 2 2 2 2 2 2 2 2 2 2
left_child=4 2 -2 5 -1 10 16 11 -3 19 28 25 -9 14 -7 -12 -6 -18 23 22 21 -21 -10 -19 -20 -5 -27 -22 29 -4
right_child=1 8 3 7 6 13 -8 12 9 -11 15 -13 -14 -15 -16 -17 17 18 24 20 27 -23 -24 -25 -26 26 -28 -29 -30 -31
leaf_value=0.045156208268175943 -0.0074956721535113227 0.045549252179328828 0.0018327817699173466 -0.025391612744574896 0.059908791182801673 -0.017377787887190198 0.043979143196033237 -0.031508981442825476 0.043648444415946425 0.062277607995289058 -0.013983705767626455 -0.028094850674501737 -0.034679249895382236 -0.02175826905264007 -0.020399760305060036 -0.016238487006799036 0.063135383457292374 0.071596111609846691 0.07487487961930521 0.028000857564125289 0.051468934348955331 0.044306881490840833 0.030614837447571899 0.060810397057251046 0.066005742634251643 -0.019141339281609715 -0.028149596891654211 0.031855446416884661 -0.011558324626398603 -0.0094225286261219732
leaf_weight=12006 9948 4728 67 4232 646 2265 927 8049 237 901 5247 6996 2719 5244 3043 4038 2432 87 197 47 395 132 62 283 191 390 126 20 2343 2002
leaf_count=12006 9948 4728 67 4232 646 2265 927 8049 237 901 5247 6996 2719 5244 3043 4038 2432 87 197 47 395 132 62 283 191 390 126 20 2343 2002
internal_value=0 -0.0130625 -0.0200638 -0.0227376 0.0492549 -0.016508 0.0595865 -0.0294478 0.0478141 0.0537831 -0.0134895 -0.026824 -0.0323095 -0.0204262 -0.0191102 -0.0149643 0.0633582 0.0640567 0.0670127 0.0452124 0.0473601 0.0400254 0.0409458 0.0633465 0.0705089 -0.0249514 -0.021341 0.0505237 -0.0103858 -0.00905805
internal_weight=0 63231 56709 46761 16769 24249 4763 22512 6522 1794 13697 11744 10768 10552 5308 9285 3836 3190 758 893 594 179 299 370 388 4748 516 415 4412 2069
internal_count=80000 63231 56709 46761 16769 24249 4763 22512 6522 1794 13697 11744 10768 10552 5308 9285 3836 3190 758 893 594 179 299 370 388 4748 516 415 4412 2069
is_linear=0
shrinkage=0.05


Tree=25
num_leaves=31
num_cat=0
split_feature=4 5 5 5 5 5 3 5 3 3 0 5 1 6 5 0 3 5 0 0 6 5 0 6 0 0 6 1 5 1
split_gain=15993 243.483 153.432 48.3694 37.3045 19.9261 17.6713 17.1055 16.4499 14.0402 9.24288 9.38039 8.41318 8.20456 7.00206 6.0513 5.64339 5.59264 5.23152 5.86572 5.21569 4.96854 4.79565 7.18604 6.2578 4.84588 4.75206 4.67428 4.61289 4.55764
threshold=1.0000000180025095e-35 0.51500000000000012 0.48500000000000004 0.33500000000000008 0.76500000000000012 0.29500000000000004 1.0000000180025095e-35 0.70500000000000007 1.0000000180025095e-35 1.0000000180025095e-35 26.158130100000005 0.87500000000000011 91.800102900000013 4.5000000000000009 0.20500000000000004 26.115673350000005 1.0000000180025095e-35 0.85500000000000009 26.178405600000001 26.196827850000002 3.5000000000000004 0.19500000000000003 26.187324200000003 1.5000000000000002 26.179244750000006 26.1631751 3.5000000000000004 91.673714500000003 0.30500000000000005 91.67063880000002
decision_type=2 2 2 2 2 2 2 2 2 2 2 2 2 2 2 2 2 2 2 2 2 2 2 2 2 2 2 2 2 2
left_child=2 3 5 8 -4 27 -5 9 14 -3 11 -6 16 -14 -2 -11 17 29 -18 -20 -7 -10 23 25 -25 -19 -26 -1 -22 -12
right_child=1 7 4 6 10 20 -8 -9 21 15 12 -13 13 -15 -16 -17 18 22 19 -21 28 -23 -24 24 26 -27 -28 -29 -30 -31
leaf_value=0.04397082406948466 -0.0093229685507641574 -0.017797346253660324 0.03220977742051382 -0.014970793561592075 0.031648788163635942 0.03725181795015655 -0.010814318973553711 -0.019289337161460977 -0.0052240860085207633 0.0030559327602386476 0.0057814754240098415 0.020753510989403975 0.030300018533639478 0.059687737571075566 -0.011778099275571408 -0.014452380240294344 0.023534963718719406 0.046334297870370474 0.033344252133239036 0.0072910374435393712 0.023196445967781767 -0.0085181340513999435 0.0092788465336248599 0.011215320927400631 0.017679566872927051 0.024828402632040773 0.04009878775343681 0.039794595672471997 0.034616443566812614 0.024907270690757682
leaf_weight=772 5316 9605 8264 8944 1117 3921 3581 13583 1935 50 32 240 114 30 6401 3805 394 33 356 23 93 2803 115 206 60 127 39 5072 1798 1171
leaf_count=772 5316 9605 8264 8944 1117 3921 3581 13583 1935 50 32 240 114 30 6401 3805 394 33 356 23 93 2803 115 206 60 127 39 5072 1798 1171
internal_value=0 -0.0146253 0.0341724 -0.0114411 0.0302821 0.0382846 -0.0137824 -0.0180375 -0.00965892 -0.0167743 0.0263555 0.0297218 0.0246635 0.0364225 -0.0106642 -0.0142253 0.0240011 0.0224541 0.0275692 0.0317632 0.0362116 -0.00717284 0.0184212 0.0206822 0.0161803 0.029264 0.0265114 0.0403463 0.0340548 0.0243985
internal_weight=0 56023 23977 28980 12321 11656 12525 27043 16455 13460 4057 1357 2700 144 11717 3855 2556 1783 773 379 5812 4738 580 465 305 160 99 5844 1891 1203
internal_count=80000 56023 23977 28980 12321 11656 12525 27043 16455 13460 4057 1357 2700 144 11717 3855 2556 1783 773 379 5812 4738 580 465 305 160 99 5844 1891 1203
is_linear=0
shrinkage=0.05


Tree=26
num_leaves=31
num_cat=0
split_feature=2 2 2 5 3 2 5 5 3 2 5 5 5 5 5 5 5 1 0 0 6 1 5 5 0 5 1 0 5 2
split_gain=18561.9 9720.79 685.858 666.462 253.209 100.433 87.9699 66.7986 31.4617 47.1689 18.6877 11.4692 10.1021 6.4596 5.5086 3.8423 3.22972 4.68183 3.16294 3.02745 3.39825 2.84222 2.67808 5.12633 4.25577 4.76627 3.13742 2.66068 2.65531 2.65334
threshold=4.5000000000000009 21.500000000000004 7.5000000000000009 0.46500000000000002 1.0000000180025095e-35 3.5000000000000004 0.62500000000000011 0.26500000000000007 1.0000000180025095e-35 22.500000000000004 0.7350000000000001 0.15500000000000003 0.33500000000000008 0.55500000000000016 0.87500000000000011 0.23500000000000001 0.34500000000000003 91.687025200000008 26.143882850000004 26.184043550000002 2.5000000000000004 91.767789950000022 0.35500000000000004 0.24500000000000002 26.145413450000003 0.80500000000000016 91.687025200000008 26.185870700000002 0.83500000000000008 13.500000000000002
decision_type=2 2 2 2 2 2 2 2 2 2 2 2 2 2 2 2 2 2 2 2 2 2 2 2 2 2 2 2 2 2
left_child=4 2 -2 7 -1 15 13 11 -3 16 -8 -4 -9 -5 -12 -6 21 18 -18 -17 27 -10 23 -7 25 -24 -25 -21 -11 -14
right_child=1 8 3 6 5 22 10 12 9 28 14 -13 29 -15 -16 19 17 -19 -20 20 -22 -23 24 26 -26 -27 -28 -29 -30 -31
leaf_value=0.042897956065683224 -0.0071297608648439419 0.043266365163666838 -0.0095781579281959284 -0.022079325041565692 0.056575279884393925 0.043201002822472502 -0.027209131870753796 -0.015592842923595985 0.041154569367394797 0.058339067154909441 -0.030185789514559355 -0.013222919508953266 -0.017603425541177675 -0.024712263105062467 -0.033456956854484236 0.059943915373237122 0.027135316045717041 0.0479481468689123 0.042239814082065341 0.067781750985217853 0.066832155788907804 0.029130143459676013 0.039827047734288502 0.016189133048465011 0.045290227822818357 0.013548394301059571 0.034680877675957698 0.057783720563182296 0.068614802860161847 -0.019488437469341285
leaf_weight=12006 9948 4728 3256 5312 646 169 6336 4038 237 833 8103 6403 3253 4149 1530 2432 47 415 132 87 388 62 80 32 543 22 81 283 68 4381
leaf_count=12006 9948 4728 3256 5312 646 169 6336 4038 237 833 8103 6403 3253 4149 1530 2432 47 415 132 87 388 62 80 32 543 22 81 283 68 4381
internal_value=0 -0.0124029 -0.0190514 -0.0215876 0.0467678 0.0565226 -0.0270546 -0.0150701 0.0454055 0.0510432 -0.0293182 -0.0119943 -0.0176154 -0.023234 -0.0307053 0.0600917 0.0428994 0.0450328 0.0382738 0.0608039 0.0635629 0.0386612 0.041753 0.0376886 0.04353 0.0341591 0.0294443 0.0601346 0.0591146 -0.0186852
internal_weight=0 63231 56709 46761 16769 4763 25430 21331 6522 1794 15969 9659 11672 9461 9633 3836 893 594 179 3190 758 299 927 282 645 102 113 370 901 7634
internal_count=80000 63231 56709 46761 16769 4763 25430 21331 6522 1794 15969 9659 11672 9461 9633 3836 893 594 179 3190 758 299 927 282 645 102 113 370 901 7634
is_linear=0
shrinkage=0.05


Tree=27
num_leaves=31
num_cat=0
split_feature=2 2 2 5 3 2 5 5 3 2 5 5 5 5 2 5 5 5 1 0 0 6 1 6 1 0 1 1 5 1
split_gain=16752.1 8773.01 618.987 601.897 228.521 90.6412 87.7548 52.5514 28.3941 42.57 19.5774 10.2062 6.24559 5.64141 3.79689 3.6372 3.46768 2.91482 4.22535 2.85456 2.73227 3.06692 2.6473 2.62601 3.39516 4.89737 4.11587 3.66875 3.45371 3.35663
threshold=4.5000000000000009 21.500000000000004 7.5000000000000009 0.51500000000000012 1.0000000180025095e-35 3.5000000000000004 0.33500000000000008 0.72500000000000009 1.0000000180025095e-35 22.500000000000004 0.17500000000000002 0.62500000000000011 0.42500000000000004 0.85500000000000009 13.500000000000002 0.24500000000000002 0.23500000000000001 0.34500000000000003 91.687025200000008 26.143882850000004 26.184043550000002 2.5000000000000004 91.721066300000004 4.5000000000000009 91.713494300000022 26.153990950000004 91.73486530000001 91.706100800000016 0.84500000000000008 91.736374150000003
decision_type=2 2 2 2 2 2 2 2 2 2 2 2 2 2 2 2 2 2 2 2 2 2 2 2 2 2 2 2 2 2
left_child=4 2 -2 6 -1 16 10 11 23 17 -4 -5 14 -9 -8 -12 -6 -10 19 -19 -18 -22 -17 24 25 27 -26 -3 -27 -28
right_child=1 8 3 7 5 -7 12 13 9 -11 15 -13 -14 -15 -16 22 20 18 -20 -21 21 -23 -24 -25 26 28 29 -29 -30 -31
leaf_value=0.040753058249747683 -0.0067732728079222303 0.040306340606899763 -0.0096601578463389893 -0.022840797674541127 0.053746515627872582 0.039665313230771188 -0.015710298513135153 -0.028335922356480331 0.036728149257369815 0.056158864717609093 -0.012598170165322792 -0.025729942906237126 -0.019693230246697817 -0.030993785514826719 -0.018414035992301219 -0.013391153415795103 0.056946719656827773 0.025778549988853174 0.045550739673718095 0.040127823383293376 0.057127878075092724 0.063490548161186697 -0.015659442541336058 0.038389226639767488 0.035537202476263449 0.045666393707955444 0.057607340518265007 0.053477864459689176 0.061561413863415106 0.041018243947545642
leaf_weight=12006 9948 945 4412 6543 646 927 2265 7513 299 901 4123 5737 5244 2719 3043 2434 2432 47 415 132 370 388 2728 750 372 674 31 56 36 1864
leaf_count=12006 9948 945 4412 6543 646 927 2265 7513 299 901 4123 5737 5244 2719 3043 2434 2432 47 415 132 370 388 2728 750 372 674 31 56 36 1864
internal_value=0 -0.0117828 -0.0180988 -0.0205082 0.0444294 0.0536964 -0.0150425 -0.0263957 0.0431352 0.048491 -0.0124024 -0.0241906 -0.0184694 -0.0290422 -0.0172603 -0.0137055 0.0570872 0.0407545 0.0427812 0.0363601 0.0577637 0.0603848 -0.0145899 0.041103 0.0416147 0.0432961 0.0403457 0.0410432 0.0464723 0.0412896
internal_weight=0 63231 56709 46761 16769 4763 24249 22512 6522 1794 13697 12280 10552 10232 5308 9285 3836 893 594 179 3190 758 5162 4728 3978 1711 2267 1001 710 1895
internal_count=80000 63231 56709 46761 16769 4763 24249 22512 6522 1794 13697 12280 10552 10232 5308 9285 3836 893 594 179 3190 758 5162 4728 3978 1711 2267 1001 710 1895
is_linear=0
shrinkage=0.05


Tree=28
num_leaves=31
num_cat=0
split_feature=2 2 2 5 3 2 5 5 3 2 5 5 5 5 5 5 5 5 1 0 0 1 1 0 0 5 6 1 0 1
split_gain=15118.8 7917.64 558.636 543.666 206.24 81.8037 71.3884 54.4265 25.6257 38.4194 15.7878 9.54059 8.32827 5.43377 3.12958 2.9689 2.73784 2.65837 3.07837 2.77489 4.65648 2.65347 2.63139 2.56024 2.47128 4.39341 4.62814 2.72415 2.65398 2.5399
threshold=4.5000000000000009 21.500000000000004 7.5000000000000009 0.46500000000000002 1.0000000180025095e-35 3.5000000000000004 0.62500000000000011 0.26500000000000007 1.0000000180025095e-35 22.500000000000004 0.78500000000000014 0.15500000000000003 0.38500000000000006 0.55500000000000016 0.23500000000000001 0.87500000000000011 0.72500000000000009 0.31500000000000006 91.687025200000008 26.178923850000004 26.174882150000006 91.767789950000022 91.760773050000012 26.148897650000006 26.127448400000002 0.38500000000000006 2.5000000000000004 91.68624530000001 26.134329750000003 91.713494300000022
decision_type=2 2 2 2 2 2 2 2 2 2 2 2 2 2 2 2 2 2 2 2 2 2 2 2 2 2 2 2 2 2
left_child=4 2 -2 7 -1 14 13 11 -3 17 16 -4 -9 -5 -6 -12 -8 21 23 20 -20 22 -10 -19 25 -16 -27 -28 29 -26
right_child=1 8 3 6 5 -7 10 12 9 -11 15 -13 -14 -15 24 -17 -18 18 19 -21 -22 -23 -24 -25 28 26 27 -29 -30 -31
leaf_value=0.038715405356201459 -0.0064346091976079101 0.039047894532633819 -0.0086162418645927795 -0.019919770464178671 0.05105919000770516 0.037682047276280446 -0.024443445833272365 -0.01479034600866053 0.035049396031799247 0.053350921284778079 -0.027729656271879573 -0.01194046221080001 -0.017510379783601218 -0.022334610039467209 0.063712221398018298 -0.030234419846316814 -0.026220262833189536 0.028460958844232487 0.043977858092250126 0.038078165749825026 0.067546180481820012 0.02466888789426197 0.05338483190333302 0.040110818395361743 0.06942805393276015 0.053868012340473281 0.048551534444093707 0.02770525802348164 0.054942128484409471 0.052580607043845318
leaf_weight=12006 9948 4728 3256 5312 646 927 5737 6937 177 901 5217 6403 4735 4149 40 1530 3485 82 236 187 23 55 22 111 62 70 25 42 2916 35
leaf_count=12006 9948 4728 3256 5312 646 927 5737 6937 177 901 5217 6403 4735 4149 40 1530 3485 82 236 187 23 55 22 111 62 70 25 42 2916 35
internal_value=0 -0.0111936 -0.0171939 -0.0194828 0.042208 0.0510116 -0.0244205 -0.0135962 0.0409785 0.0460665 -0.0264596 -0.0108199 -0.0158938 -0.0209788 0.0542328 -0.0282977 -0.0251149 0.0387167 0.0404367 0.0427196 0.0460708 0.0343898 0.0370764 0.0351611 0.0548755 0.0491337 0.0448772 0.0354837 0.0552128 0.0633491
internal_weight=0 63231 56709 46761 16769 4763 25430 21331 6522 1794 15969 9659 11672 9461 3836 6747 9222 893 639 446 259 254 199 193 3190 177 137 67 3013 97
internal_count=80000 63231 56709 46761 16769 4763 25430 21331 6522 1794 15969 9659 11672 9461 3836 6747 9222 893 639 446 259 254 199 193 3190 177 137 67 3013 97
is_linear=0
shrinkage=0.05


Tree=29
num_leaves=31
num_cat=0
split_feature=4 2 2 2 2 2 5 2 5 3 3 5 2 5 5 3 2 5 2 3 2 5 5 5 5 5 5 5 5 0
split_gain=14371.7 7845.23 6439.11 4196.26 3360.56 326.155 328.945 153.281 166.447 141.85 62.3174 50.1599 43.3869 33.8703 30.6167 28.0445 27.1845 14.3506 14.2564 8.46024 9.16659 5.76274 5.30423 5.08522 5.03921 4.79749 4.1357 3.36375 3.11742 2.3349
threshold=1.0000000180025095e-35 4.5000000000000009 4.5000000000000009 21.500000000000004 21.500000000000004 7.5000000000000009 0.45500000000000007 7.5000000000000009 0.56500000000000006 1.0000000180025095e-35 1.0000000180025095e-35 0.66500000000000015 3.5000000000000004 0.27500000000000008 0.35500000000000004 1.0000000180025095e-35 22.500000000000004 0.76500000000000012 3.5000000000000004 1.0000000180025095e-35 22.500000000000004 0.77500000000000013 0.57500000000000007 0.19500000000000003 0.21500000000000002 0.38500000000000006 0.71500000000000008 0.60500000000000009 0.45500000000000007 26.188822400000003
decision_type=2 2 2 2 2 2 2 2 2 2 2 2 2 2 2 2 2 2 2 2 2 2 2 2 2 2 2 2 2 2
left_child=1 10 9 7 5 27 13 -3 14 26 -1 22 -11 23 24 -6 -17 -10 -12 -5 -21 -13 -8 -7 -9 -15 29 -4 -16 -2
right_child=2 3 4 19 15 6 11 8 17 12 18 21 -14 25 28 16 -18 -19 -20 20 -22 -23 -24 -25 -26 -27 -28 -29 -30 -31
leaf_value=0.083659936065508575 0.014790009838118233 0.019525700567885874 -0.018157009165801263 0.084246349026785627 0.015779145510413886 -0.02001960664893911 -0.029896913998069555 0.016444084619062212 0.00272995228570495 0.030854694454009325 0.098266722064870762 -0.034912462144905398 0.016601509097846589 -0.025012732937091709 0.0099335280493821759 0.017170784153799547 0.031744460377773606 -0.0023235516119566898 0.085308444994757079 0.08504612724794898 0.098400563857285309 -0.037371425458521554 -0.032386760234017764 -0.022681783309280643 0.013029447983325502 -0.027610486896663469 0.017798284624680867 -0.015875882886322468 0.0070180539842007745 0.017654790811063911
leaf_weight=3715 5541 3024 4354 1472 3256 3933 4929 1995 3386 2660 1176 4475 668 4494 1741 635 645 2401 259 258 256 5096 3779 3298 2357 2940 1934 2570 1937 816
leaf_count=3715 5541 3024 4354 1472 3256 3933 4929 1995 3386 2660 1176 4475 668 4494 1741 635 645 2401 259 258 256 5096 3779 3298 2357 2940 1934 2570 1937 816
internal_value=0 0.032394 -0.0138642 0.0174355 -0.0225352 -0.0271749 -0.0292482 0.00932932 0.00709773 0.0192739 0.0870783 -0.0337234 0.0279938 -0.0236702 0.0117565 0.0182442 0.0245146 0.000633276 0.0959279 0.0861748 0.0916974 -0.0362217 -0.0309774 -0.0212338 0.0145948 -0.0260401 0.0157737 -0.0173103 0.00839811 0.0151577
internal_weight=0 23977 56023 18827 44404 39868 32944 16841 13817 11619 5150 18279 3328 14665 8030 4536 1280 5787 1435 1986 514 9571 8708 7231 4352 7434 8291 6924 3678 6357
internal_count=80000 23977 56023 18827 44404 39868 32944 16841 13817 11619 5150 18279 3328 14665 8030 4536 1280 5787 1435 1986 514 9571 8708 7231 4352 7434 8291 6924 3678 6357
is_linear=0
shrinkage=0.05


Tree=30
num_leaves=31
num_cat=0
split_feature=4 2 2 2 2 2 5 2 5 3 3 5 2 5 5 3 2 5 2 3 2 5 5 5 5 5 5 5 5 5
split_gain=12970.5 7080.32 5811.3 3787.12 3032.91 294.355 296.873 138.336 150.218 128.02 56.2414 45.2693 39.1567 30.7574 27.6315 25.3101 24.534 12.9514 12.8664 7.63536 8.27285 7.11344 5.35823 4.83038 4.5621 3.73247 3.03578 2.81347 2.48849 2.26845
threshold=1.0000000180025095e-35 4.5000000000000009 4.5000000000000009 21.500000000000004 21.500000000000004 7.5000000000000009 0.45500000000000007 7.5000000000000009 0.56500000000000006 1.0000000180025095e-35 1.0000000180025095e-35 0.66500000000000015 3.5000000000000004 0.23500000000000001 0.35500000000000004 1.0000000180025095e-35 22.500000000000004 0.76500000000000012 3.5000000000000004 1.0000000180025095e-35 22.500000000000004 0.34500000000000003 0.81500000000000006 0.53500000000000014 0.15500000000000003 0.71500000000000008 0.60500000000000009 0.45500000000000007 0.13500000000000004 0.70500000000000007
decision_type=2 2 2 2 2 2 2 2 2 2 2 2 2 2 2 2 2 2 2 2 2 2 2 2 2 2 2 2 2 2
left_child=1 10 9 7 5 26 13 -3 14 25 -1 23 -11 28 24 -6 -17 -10 -12 29 -21 -15 -13 -8 -9 -2 -4 -16 -7 -5
right_child=2 3 4 19 15 6 11 8 17 12 18 22 -14 21 27 16 -18 -19 -20 20 -22 -23 -24 -25 -26 -27 -28 -29 -30 -31
leaf_value=0.079476939115327355 0.014399853086493525 0.01854941560855233 -0.017249158741276884 0.078939813685471594 0.014990188251509157 -0.017785790783597415 -0.027914397211950645 0.016858044611787967 0.0025934546988922655 0.029311959833783999 0.093353386057958926 -0.033519229438557244 0.015771433437955191 -0.022864424531779403 0.0094368516379046714 0.016312244885640519 0.030157237186551441 -0.0022073740089984073 0.081043022100069362 0.080793820529483085 0.093480535561684522 -0.025665542310903018 -0.035980743600507806 -0.030344421616866565 0.012989416596825157 0.016908370419945116 -0.015082088728665621 0.006667151291429827 -0.020194339832986689 0.08355496639658011
leaf_weight=3715 6357 3024 4354 1123 3256 1446 3282 985 3386 2660 1176 6105 668 4467 1741 635 645 2401 259 258 256 4601 3466 5426 3367 1934 2570 1937 4151 349
leaf_count=3715 6357 3024 4354 1123 3256 1446 3282 985 3386 2660 1176 6105 668 4467 1741 635 645 2401 259 258 256 4601 3466 5426 3367 1934 2570 1937 4151 349
internal_value=0 0.0307743 -0.0131709 0.0165637 -0.0214085 -0.0258162 -0.0277858 0.00886285 0.00674285 0.0183102 0.0827244 -0.0320372 0.0265941 -0.0224867 0.0111687 0.017332 0.0232888 0.000601613 0.0911315 0.081866 0.0871125 -0.0242857 -0.0344106 -0.0294286 0.013865 0.014985 -0.0164448 0.0079782 -0.0195721 0.080034
internal_weight=0 23977 56023 18827 44404 39868 32944 16841 13817 11619 5150 18279 3328 14665 8030 4536 1280 5787 1435 1986 514 9068 9571 8708 4352 8291 6924 3678 5597 1472
internal_count=80000 23977 56023 18827 44404 39868 32944 16841 13817 11619 5150 18279 3328 14665 8030 4536 1280 5787 1435 1986 514 9068 9571 8708 4352 8291 6924 3678 5597 1472
is_linear=0
shrinkage=0.05


Tree=31
num_leaves=31
num_cat=0
split_feature=2 2 2 5 3 2 5 5 3 2 5 5 5 5 1 1 1 1 5 1 1 0 1 2 0 1 1 1 1 6
split_gain=11113.7 5820.2 410.649 400.853 151.605 60.1332 58.9155 35.5081 18.8373 28.2418 12.3415 6.8725 5.10271 4.14065 2.75397 2.65503 2.33671 3.99875 2.35298 3.10881 3.04086 2.35176 2.31566 2.18035 2.58627 3.38946 3.09159 2.14217 2.12847 2.12431
threshold=4.5000000000000009 21.500000000000004 7.5000000000000009 0.51500000000000012 1.0000000180025095e-35 3.5000000000000004 0.32500000000000007 0.72500000000000009 1.0000000180025095e-35 22.500000000000004 0.17500000000000002 0.62500000000000011 0.40500000000000008 0.87500000000000011 91.660649800000016 91.662854800000005 91.799397550000023 91.78749765000002 0.31500000000000006 91.767789950000022 91.69253645000002 26.143882850000004 91.804442650000013 12.500000000000002 26.181450750000003 91.766072850000015 91.763257450000012 91.760773050000012 91.761527350000009 4.5000000000000009
decision_type=2 2 2 2 2 2 2 2 2 2 2 2 2 2 2 2 2 2 2 2 2 2 2 2 2 2 2 2 2 2
left_child=4 2 -2 6 -1 14 10 11 29 16 -4 -5 22 -9 -6 -16 17 18 19 27 21 -20 -8 -13 25 26 28 -10 -25 -3
right_child=1 8 3 7 5 -7 12 13 9 -11 -12 23 -14 -15 15 -17 -18 -19 20 -21 -22 -23 -24 24 -26 -27 -28 -29 -30 -31
leaf_value=0.033193620631398545 -0.0055168730996505459 0.033938880396046388 -0.0078197722898603519 -0.01858848768173945 0.041288864314399598 0.032307645507765173 -0.013763438460826012 -0.023262390251583484 0.029790715573850157 0.045741746290863389 -0.011065547222715952 -0.019626373427794778 -0.015829903955027074 -0.026082910098655918 0.059652335755527024 0.046698392713399747 0.04646179736363365 0.018521114717178207 0.022557521674752935 0.015049455943870161 0.038086946210352746 0.033888176135626273 -0.001681191953830421 -0.022268448610965042 -0.019665171361546167 -0.029936563528831797 -0.012668557254420149 0.046334138157015502 -0.03638713077676517 0.031037831321199579
leaf_weight=12006 9948 3978 4412 6543 238 927 4624 8702 177 901 8711 1999 6462 1530 40 3558 32 47 64 33 357 161 40 2358 1123 146 84 22 27 750
leaf_count=12006 9948 3978 4412 6543 238 927 4624 8702 177 901 8711 1999 6462 1530 40 3558 32 47 64 33 357 161 40 2358 1123 146 84 22 27 750
internal_value=0 -0.00959715 -0.0147416 -0.0167041 0.0361881 0.0437361 -0.0122436 -0.0215087 0.0351339 0.0394962 -0.00997431 -0.0196961 -0.0149202 -0.0236841 0.0464978 0.0468424 0.0331948 0.0327017 0.0335205 0.0292627 0.0352177 0.0306652 -0.0136598 -0.0209593 -0.0216721 -0.022534 -0.0220962 0.0316196 -0.0224283 0.0334787
internal_weight=0 63231 56709 46761 16769 4763 24249 22512 6522 1794 13123 12280 11126 10232 3836 3598 893 861 814 232 582 225 4664 5737 3738 2615 2469 199 2385 4728
internal_count=80000 63231 56709 46761 16769 4763 24249 22512 6522 1794 13123 12280 11126 10232 3836 3598 893 861 814 232 582 225 4664 5737 3738 2615 2469 199 2385 4728
is_linear=0
shrinkage=0.05


Tree=32
num_leaves=31
num_cat=0
split_feature=2 2 2 5 3 2 5 5 3 2 5 5 5 5 5 0 5 2 1 0 0 1 1 1 1 0 6 0 5 1
split_gain=10030.1 5252.73 370.61 361.77 136.824 54.2703 53.3039 32.0847 17.0006 25.4882 10.2895 5.71507 5.53403 4.19302 2.59934 3.1699 2.48926 2.3514 3.04105 2.30568 2.26202 2.54035 2.49757 2.25867 2.25536 2.21742 2.51851 2.24225 2.21363 2.62257
threshold=4.5000000000000009 21.500000000000004 7.5000000000000009 0.51500000000000012 1.0000000180025095e-35 3.5000000000000004 0.31500000000000006 0.71500000000000008 1.0000000180025095e-35 22.500000000000004 0.15500000000000003 0.59500000000000008 0.40500000000000008 0.85500000000000009 0.22500000000000003 26.119980300000005 0.23500000000000001 8.5000000000000018 91.794066300000011 26.201132500000003 26.195329750000003 91.800102900000013 91.78749765000002 91.64889500000001 91.669346350000012 26.184043550000002 2.5000000000000004 26.183617650000006 0.34500000000000003 91.683668050000009
decision_type=2 2 2 2 2 2 2 2 2 2 2 2 2 2 2 2 2 2 2 2 2 2 2 2 2 2 2 2 2 2
left_child=4 2 -2 6 -1 16 10 11 -3 20 -4 19 17 -9 15 -12 -6 18 24 -5 21 22 23 -10 -8 27 -27 -18 29 -25
right_child=1 8 3 7 5 -7 12 13 9 -11 14 -13 -14 -15 -16 -17 25 -19 -20 -21 -22 -23 -24 28 -26 26 -28 -29 -30 -31
leaf_value=0.031533939630205732 -0.0052410294537302282 0.031804754212236434 -0.0069492247250006666 -0.017400592081701735 0.041342568764815922 0.030692263181495129 0.00096157756808679562 -0.021831117416549445 0.020083832635065996 0.043454658958896046 -0.017455954802344027 -0.019534469573710488 -0.015038408726807699 -0.024102161742819123 -0.010956747023691432 -0.0090354780498364904 0.044188233041275365 -0.013146112069123826 0.0081788067123852674 -0.0066065709118265665 0.018265205123011146 0.048784497185525577 0.018688531933973233 0.037817751224429236 -0.011649200400498582 0.044156031636458294 0.049921838521414928 0.031065576438876714 0.034672340274546375 0.026181989812395119
leaf_weight=12006 9948 4728 3256 4698 646 927 40 8049 37 901 115 6996 6462 2719 5204 3975 2399 4861 24 50 31 22 36 64 312 370 388 33 504 199
leaf_count=12006 9948 4728 3256 4698 646 927 40 8049 37 901 115 6996 6462 2719 5204 3975 2399 4861 24 50 31 22 36 64 312 370 388 33 504 199
internal_value=0 -0.00911729 -0.0140045 -0.0158689 0.0343787 0.0415493 -0.0116314 -0.0204333 0.0333772 0.0375214 -0.00936805 -0.0186258 -0.0140594 -0.0224046 -0.0102154 -0.00927224 0.044173 -0.0128515 -0.00904201 -0.0172869 0.031535 0.0320122 0.031573 0.0321499 -0.0102162 0.0447461 0.0471074 0.0440102 0.032732 0.0290135
internal_weight=0 63231 56709 46761 16769 4763 24249 22512 6522 1794 12550 11744 11699 10768 9294 4090 3836 5237 376 4748 893 862 840 804 352 3190 758 2432 767 263
internal_count=80000 63231 56709 46761 16769 4763 24249 22512 6522 1794 12550 11744 11699 10768 9294 4090 3836 5237 376 4748 893 862 840 804 352 3190 758 2432 767 263
is_linear=0
shrinkage=0.05


Tree=33
num_leaves=31
num_cat=0
split_feature=2 2 2 5 3 2 5 5 3 2 5 5 5 5 1 1 1 0 0 2 5 5 5 5 1 0 5 0 5 5
split_gain=9052.16 4740.59 334.476 327 123.484 48.9789 43.4932 33.331 15.3431 23.0031 9.83007 5.91881 4.89713 3.16809 2.59762 2.46047 2.41968 2.36231 2.12303 3.34095 2.409 2.0948 2.07906 4.04392 4.48126 3.32856 3.84232 2.97303 2.04998 2.04939
threshold=4.5000000000000009 21.500000000000004 7.5000000000000009 0.46500000000000002 1.0000000180025095e-35 3.5000000000000004 0.62500000000000011 0.26500000000000007 1.0000000180025095e-35 22.500000000000004 0.78500000000000014 0.15500000000000003 0.38500000000000006 0.54500000000000015 91.683913000000018 91.660649800000016 91.66413660000002 26.202883550000003 26.197527950000005 15.500000000000002 0.75500000000000012 0.87500000000000011 0.35500000000000004 0.17500000000000002 91.680697750000022 26.145413450000003 0.80500000000000016 26.147817200000002 0.84500000000000008 0.89500000000000013
decision_type=2 2 2 2 2 2 2 2 2 2 2 2 2 2 2 2 2 2 2 2 2 2 2 2 2 2 2 2 2 2
left_child=4 2 -2 7 -1 15 13 11 29 -10 17 -4 -9 14 -5 -6 -17 18 -8 20 -20 -12 23 -7 -25 26 -24 -26 -11 -3
right_child=1 8 3 6 5 22 10 12 9 28 21 -13 -14 -15 -16 16 -18 -19 19 -21 -22 -23 25 24 27 -27 -28 -29 -30 -31
leaf_value=0.029957242604730556 -0.0049789779205799386 0.030140160492659974 -0.0066017633015929182 -0.01308140588448526 0.037040716300849576 0.034250992319065629 -0.019399195911913289 -0.011461954496579267 0.029958277540811998 0.040639226592944139 -0.02146968436726486 -0.009220062372518583 -0.013547730221835927 -0.01713153367487194 -0.015921184575040947 0.052696909823200924 0.042128435318754133 -0.009628470413020401 -0.013753730315141955 -0.03290143253526185 -0.033597609940916304 -0.023573657087913223 0.027524952865060189 0.0052747207746974062 0.042106554487889469 0.03228009925343947 0.0039304677238264545 0.022274489024369074 0.050132214151261768 0.044788279423179728
leaf_weight=12006 9948 4704 3256 1030 238 91 9001 6937 893 840 5217 6403 4735 4740 3691 55 3543 61 65 75 20 1530 80 35 22 543 22 134 61 24
leaf_count=12006 9948 4704 3256 1030 238 91 9001 6937 893 840 5217 6403 4735 4740 3691 55 3543 61 65 75 20 1530 80 35 22 543 22 134 61 24
internal_value=0 -0.00866143 -0.0133043 -0.0150754 0.0326597 0.0394718 -0.0189049 -0.0105101 0.0317084 0.0356453 -0.0204965 -0.00833745 -0.0123081 -0.0162184 -0.0153016 0.0419643 0.04229 -0.0194354 -0.0195007 -0.0252097 -0.0184229 -0.0219468 0.0291577 0.0255765 0.0214437 0.0307233 0.0224359 0.0250713 0.0412819 0.0302145
internal_weight=0 63231 56709 46761 16769 4763 25430 21331 6522 1794 15969 9659 11672 9461 4721 3836 3598 9222 9161 160 85 6747 927 282 191 645 102 156 901 4728
